3263 100
de -0.09701378 -0.27088547 0.40012982 -0.819796 -0.6930272 -0.071231455 -0.060538907 0.109662406 1.4464463 -0.054618053 0.9077625 -0.33274785 -0.7606578 0.12893972 -0.6933415 0.3992399 -0.012993822 0.45316806 0.0018905742 -0.52289903 1.647717 0.2541925 0.73750323 -0.23716035 0.7428178 -0.20577458 -0.20746075 0.17778382 -0.025244253 -0.43841404 -0.6710739 0.018214695 0.85789394 -0.6189284 -0.13991286 -0.36386982 -0.40760705 -0.9401728 -0.04796234 0.048870575 -1.7589003 0.41357747 -1.3627205 0.5446219 -0.6667845 -0.6746375 -0.8941064 1.4243392 -0.07246939 0.2696428 0.28518832 1.0508196 0.04249134 1.0767604 0.6116109 -0.97055805 0.06509127 -1.2325972 -0.58040226 1.3778985 -0.51941425 0.2848809 -1.8066391 -0.45934698 0.2882541 -0.24409051 -0.14162306 0.90465575 -0.29603806 0.9399553 0.48689383 0.20821264 -0.018468449 -0.85886157 0.72418225 -1.172713 1.399327 -0.3802436 -0.41877514 -0.7452301 -0.7565151 -0.13512014 0.73833317 0.96048385 0.10011752 0.67525744 0.52409154 -0.37316474 -0.3899496 0.44175315 -0.19504705 -0.09185328 1.2393847 0.11914532 0.40143102 0.41741532 -0.7867699 -0.38741794 0.53486127 1.8487246
que -0.6264478 -0.2406721 0.5380083 -0.0043424377 0.22265257 -0.5450692 -0.6119939 0.29561755 0.15409924 0.6334008 -0.6553147 -0.23368743 0.14397669 0.49676263 0.3339165 0.8889783 0.7217708 -0.05814578 0.24488682 -0.4647305 0.4240386 -0.4892772 0.33159286 -0.9208045 0.2634895 0.84135985 -1.366233 -0.18270709 0.3532302 -0.040655315 -0.41988575 0.14156118 0.35846674 -0.24395914 0.48670012 0.97719914 0.42288178 0.91926616 0.6312718 0.52566093 1.2333207 -0.6820579 -1.2015289 -0.33628604 -0.20576584 0.3742422 -0.7124987 -0.43176663 0.3701407 -1.4491194 0.7173564 -1.3245696 0.34613603 0.98494315 -0.06768566 -0.3234848 -0.07202929 0.30411786 0.07927265 0.7241036 -0.28145698 -0.5549622 -1.3223393 -0.44708535 0.47183332 1.2614464 0.13348888 -0.23548244 -0.02460592 1.8611666 -1.1340641 -0.44725454 0.90035474 0.37580836 0.3561543 0.10497518 -0.52515686 -0.46878144 0.17545329 0.5255534 -1.0139948 -0.0075214934 0.026710803 -0.082674354 0.33547089 -0.7376139 0.498343 -0.34180525 1.155038 -0.13417304 0.30063388 0.58546585 -0.04493508 -1.0256902 0.26028043 -0.18649074 0.31578153 -0.113455884 0.49958137 0.9045464
a 0.01510419 0.4088795 0.49768826 -0.100916944 1.1662476 -0.43118998 -0.590925 0.51341474 -0.39085314 0.6544172 0.85975397 -0.0490954 0.9876365 0.107332006 0.002932633 -0.4026737 0.4362947 0.90107995 -1.0275729 -0.86735094 0.3380417 0.5572427 -0.4874016 -1.0022188 0.77180356 0.9310609 1.4153304 1.4262791 -0.05849345 -0.61703974 1.3965806 -0.076989286 -0.22322069 -0.27810594 0.2713864 -1.1817974 1.2149706 -0.8847915 -0.4848766 -1.0256618 0.6571209 0.10625978 -0.9084571 -0.7123628 -1.2083669 -0.83686745 -1.1989955 -0.07728006 -0.42739415 0.07591458 0.044939063 -1.0994662 -1.3615575 -0.50837374 -1.1255057 -0.6906508 -1.060051 -0.43330207 -0.32300228 -0.0680241 0.36989635 -0.12315524 0.23816796 0.55152357 -0.123847924 1.7269212 1.2525797 -0.65368134 -0.33387902 0.79029757 0.2189849 0.3964496 0.3058776 -0.8025076 -0.5625962 -0.13840452 0.6529628 -0.09475484 0.069988616 0.17647143 -0.38793328 -1.4833155 -1.2033665 0.08893747 -0.82411164 -0.16658644 -0.6555261 -1.2190548 0.38658297 -0.4202547 -0.7316842 0.41639507 1.0296079 -0.8173995 -0.59409255 0.7998177 0.0021059867 0.11132751 0.7061024 -0.65088767
o -1.6360679 1.156937 -0.76847386 0.48430204 -0.48634875 -1.683624 0.72707856 -0.097725295 -0.38458022 -1.5066037 0.7716612 0.29970288 0.16147587 0.33301333 -0.2153538 0.41260475 2.7701316 -0.545943 -1.2742826 -0.13797854 0.3009555 0.33313796 0.06901102 0.6766878 -0.5265589 -0.0034365891 0.12660672 0.5289975 0.30118486 0.9137659 1.1952064 0.06079507 0.0037777375 -0.28144306 -0.049115963 0.657612 0.70503044 -0.89630336 -0.78444153 0.21520703 0.79071397 0.8313806 0.75250494 0.3486361 0.45648915 0.49021682 -0.18060316 0.10036964 -0.33457622 -0.30578747 0.30126294 -0.42936364 -1.1045847 -0.8281152 0.05094205 0.582392 0.33074316 0.7120031 0.6760486 0.7996254 -0.4755253 0.9180064 1.1113133 0.00041555884 0.28699294 -0.66701764 0.20269483 0.7683997 0.05062087 -1.9204885 0.31516388 -0.58281046 -0.677324 0.72721624 -0.472202 -0.53689986 -0.39759225 0.419669 0.2673774 -0.16650975 -0.5328477 -0.015883273 2.016084 0.48115304 0.3941332 -0.05221228 0.4743565 0.37683463 0.5762661 -0.893285 -0.55468035 0.5317011 -0.6439727 -0.0046984297 0.7508182 -0.8768333 0.39643693 -1.0301542 -0.13905339 0.640039
e -0.97019416 -0.5424698 0.1873925 -0.7507631 -0.30400312 0.06408887 0.4603388 -0.4196698 0.47557738 0.41055837 -0.20546995 0.028627599 -0.15498911 0.29982066 0.13100202 -0.2702804 -0.26083264 -0.7926406 -0.703837 -0.557504 -0.14421293 -0.31938756 0.73750085 0.290519 -0.40174022 -0.2806451 -0.32929873 -0.09959001 0.11013754 0.3870333 0.6421476 0.1075972 0.20730753 0.47833434 -0.18405567 -0.33364946 -0.007436597 -0.15750349 0.08251375 -0.12906852 -0.011949724 -0.089391805 -0.68539894 0.5483433 0.8933097 -0.91775686 -0.37285858 0.1268543 -0.26178545 0.3551821 0.1830103 0.49776146 0.21306007 -0.5715451 -0.52445203 -1.2863467 0.8396678 -0.74063325 -0.18171246 -0.49414277 -0.061311852 -0.9024592 -0.00012077535 -0.27559704 -0.68085474 -0.29596376 0.037109118 -0.39252448 -0.935332 0.14264773 -0.43251392 0.8027876 -0.656448 0.3671101 0.1438075 -0.46934354 0.7047121 -0.3726978 0.26900783 -0.2996011 -0.17778255 -0.30104077 0.36004475 1.2235814 0.30845305 -0.37429115 0.39257756 0.15893298 -0.7586329 0.64820343 0.013852726 0.057377756 -0.06740983 0.3452731 0.0061340095 0.29169858 0.18038234 -0.2010479 0.5702282 0.9528408
harry -0.97842586 0.42643115 -0.23349006 -0.90300316 -0.50568616 -0.012603641 0.42011684 0.88494885 -0.46608928 -0.42151716 0.17759228 -0.73542756 0.5602433 -0.29187363 -0.1705952 -0.4731755 -0.054733325 -0.6620179 0.4698818 -1.0098423 -0.91866004 -0.16903323 1.1026566 0.84305245 -0.59267783 -0.30484402 -0.072170354 0.6965818 -0.47178853 -0.2848507 0.79316837 -0.6688697 0.78052557 -0.76269007 -0.36176297 1.0934885 0.6452159 -0.36592 -0.0024046137 0.67718697 1.1374277 0.23033156 -0.4531011 -1.0610069 -0.44606137 -0.80561787 -0.33119586 0.74741673 -0.7596475 -0.5362771 0.28445172 -0.3921948 -0.19072919 -0.0812811 -1.0278474 0.010776396 0.5456695 -0.3127465 0.66007614 -0.9142822 1.0365957 -1.0913731 2.0341415 -0.8334088 0.20956278 -0.40378225 -0.6552095 0.060355183 -0.7195791 -0.28970438 0.019480174 -0.36013263 0.5092537 1.2285722 0.14209987 -0.4999619 -1.4792787 -1.0239667 -0.05194342 0.93517166 -0.23810664 -0.4351502 -0.6529955 -0.016087782 -0.3887667 -0.6720372 -0.055783782 0.30785906 0.028105898 0.30167404 -0.04824682 1.0805565 -0.35175917 0.17037824 0.5363874 0.68047845 0.20095645 -0.31790242 0.25288245 -0.4975929
se 0.5990121 0.07111801 -0.16336592 -0.14974791 0.18645479 -0.9484044 0.26060104 0.35419866 -0.78836864 -0.014452945 0.16002783 -0.09740515 0.072558224 0.8820755 -0.7676551 -0.14485034 0.6483566 -0.05111352 -0.119030535 -1.0500389 -0.24451974 -0.1166477 1.492542 -0.5641678 0.15962525 -0.4499772 -0.38077766 0.52590835 -0.774182 -0.45898733 0.5230875 0.017487803 0.033180907 -0.14774673 -1.6431262 0.22854307 0.33801496 -0.08642409 -0.2783008 -0.26213828 0.53922087 0.055751663 0.090191394 -1.7240447 -0.129637 1.0183797 -1.4118924 0.28062132 -0.64341205 -0.446293 0.3051919 -0.39428675 -0.30179784 -0.6637186 -0.31100577 -0.614023 -0.025704926 -0.6365059 1.0678533 -0.46318853 0.16957408 -0.64112043 0.9293924 -0.049065787 -0.54544216 0.68183213 -0.63316536 -0.2870414 0.11237385 0.21018735 -0.3269646 0.33737606 -0.5622413 1.3463775 0.52665746 -0.9534932 0.26190612 -0.88906246 0.5122406 0.07718046 0.4659075 -0.47275543 -1.331592 -0.29104486 0.06265542 -0.9639553 0.91732734 -0.59140766 0.0989391 -0.018607164 -0.58966476 -0.03644772 -0.9033269 -0.29828885 -1.0158786 -0.34166208 1.0002999 -0.60309875 -0.70554745 -0.17046888
não 0.3109602 -0.3172877 0.31668437 1.339741 0.24601087 -0.5390988 0.47377086 0.2751425 -1.5023452 -0.3028647 -0.9760483 -0.42119545 0.36693278 0.649283 0.8028958 1.048162 -0.15953484 0.36005056 -0.34095964 -0.10673458 0.9800379 0.40081075 0.38059962 -0.42796844 0.23848365 0.73065007 -0.04666694 0.3201544 0.09167615 -0.38678548 -0.48377535 0.73477274 -0.22889964 -0.721789 0.28809994 1.1233331 0.063406326 0.4148308 0.54310966 0.64146346 1.2560757 -0.87062013 0.11901244 -0.5724222 -0.55013984 0.1548373 -0.84513503 -0.24375845 0.86974734 -0.16442333 -0.51709515 -0.3741424 2.011943 -0.3879431 -0.13221933 0.92496836 -0.8212894 0.6706952 0.0380283 0.7943348 -0.039782573 -0.82186943 -1.1198133 -0.28833708 1.0081177 0.8672371 -0.4999795 1.3633016 -0.41678274 1.0931582 -0.029698757 -0.74085486 0.9311968 0.77997214 0.13287583 -0.12987253 -0.5500761 -0.15095975 0.8516239 0.36992872 -1.4433029 -0.29790682 -1.636311 0.5473155 -0.045837138 -0.4647958 0.55479723 0.59933275 1.2713342 -0.593421 0.66139925 -0.07279385 -0.3601744 0.5833198 -0.063890085 0.4630244 0.11103834 -0.20362176 1.0244254 -0.5896199
para -0.4270697 0.6417645 0.0098396195 0.874011 0.24438083 0.054826576 1.034994 -0.6910632 0.13442658 0.27706453 0.6358007 -0.12734812 -0.6232879 -0.38222563 0.24123596 0.5444733 -1.0811656 0.25995642 -1.1680443 -1.1265718 -0.08036251 1.356129 0.5617538 0.49464315 0.3560361 0.37999734 0.9361255 -0.72000974 -1.2739108 -0.7462465 1.5132439 -0.23176895 1.7419654 0.34063837 -0.9439082 -0.4866911 0.30238217 -0.040897645 1.1510677 -0.7097474 -1.2778866 0.22709538 -0.5644989 -0.43261465 0.60172665 -0.33827323 0.59764135 -0.32421824 0.40106228 -0.089982904 0.6604126 -0.24025609 -1.1705945 -0.8634919 0.8065638 -0.12428619 0.54004115 -0.5772845 0.47291702 0.08339778 -0.85077935 0.2067129 0.43276486 0.5844608 0.28648096 0.26419464 -0.9561935 1.0995839 -1.1623615 0.59541357 -1.2263955 0.33435106 0.27523094 1.038201 -0.31693798 -1.5828047 -0.6068145 -0.6674285 -1.1809328 -0.54179925 0.43655226 -0.79138637 0.8116993 0.2965214 1.1518772 0.46244 0.4716858 -0.67346585 -0.012022544 0.7983582 -0.0964886 -0.0020365564 0.26133487 0.03841251 0.7427748 1.023765 0.6191168 0.18213646 0.4241057 -0.99958277
um -1.6225157 -0.22019422 -0.70247656 0.1688485 -1.5713648 -2.9168663 0.26005626 0.23499787 0.48695508 -1.7043062 1.1889805 0.17372264 -0.464396 0.3737325 0.021642312 1.218724 1.4247664 -0.88970333 -0.14651038 -1.1739528 1.2294368 0.57419413 0.49930245 -0.053757846 -0.037554275 -0.76512855 -0.24613154 0.837127 0.1490466 1.0160676 0.426818 1.1039764 0.3570096 1.0299338 -0.47802344 1.1940047 0.26123068 0.3326737 -0.65952396 0.4295335 0.43998685 0.56648326 -0.5508295 1.1460941 -0.054137174 0.41735944 -1.1245013 1.5337294 1.0714629 0.73953915 -0.7504001 1.3595088 0.19771361 0.1965908 0.09875655 -0.5840071 -0.27682987 -0.32833835 1.9758984 0.366576 -0.05274401 1.081033 0.2774639 -0.49834648 -1.1696616 -1.7527301 -0.64923227 -1.4963219 0.20101146 -0.9906555 1.0504823 0.05767555 -0.62069666 -0.16552603 -0.06372411 0.36203003 1.8940554 -0.7395989 0.9171662 -0.059629332 -0.049716737 0.56461334 1.6787947 0.7669057 1.0760975 -0.4528367 -0.17496294 0.37764126 0.8695267 0.9244799 -0.43073723 1.1857116 -0.33595788 0.80564755 0.11790766 -1.2405654 -0.41469896 -0.52818227 0.41434354 0.68250656
uma 0.42402795 -0.40280584 1.9034495 -0.88101375 -0.57616735 -1.2249333 -0.23892479 1.6373945 0.38830265 0.24743253 1.3752055 -0.16791186 1.5734949 -0.3592058 0.48040017 0.054423522 -0.5318302 -0.8354154 0.37906355 -1.0518564 1.0173758 0.42841488 0.05542977 -0.99431217 -0.52269864 0.4304141 0.582138 0.5060185 1.2554659 -1.2633176 0.14507194 0.2584637 0.74317557 1.1603746 0.89771515 0.120856024 0.4008639 -0.4452349 -0.67746884 -0.84233475 0.43838486 0.22237054 -2.1678596 -0.6467614 -1.2696625 -1.8975879 -1.9132789 1.2787853 -0.14258805 0.3674311 -0.8369889 0.21464896 -0.38687447 -0.13358517 -0.15776992 -1.4701529 -1.6130759 -0.7591862 0.6886023 -0.33170894 -0.8327683 0.10370968 -0.42958924 -0.5373804 -0.63739824 1.3012427 0.56049347 -0.84777236 -0.20389885 0.8709577 0.26150414 1.1279296 -0.30515093 -0.9651832 -0.31131765 0.18532868 1.9306755 -0.8552404 0.5531089 0.8283094 0.35857782 0.040529694 -0.45263696 0.34237465 -0.36704487 0.112682335 -0.47114047 -0.3170034 0.91379774 -0.440385 0.35535625 0.48992795 0.13600679 0.056518797 -1.0521362 -0.109654896 -0.5002592 -0.5334718 0.95844805 0.15119243
os 0.5291351 0.7189984 0.13247615 0.704819 1.2653376 -0.21404676 0.61492413 1.1124718 0.9442676 -1.3488295 0.33258566 0.12314614 -2.4835644 0.6672402 -0.2797513 -1.3298227 -0.5935565 -0.8676855 -1.0012293 -0.3152209 -0.7067684 -1.4328853 1.2718505 -1.6926777 -0.18911186 -1.4058714 0.14944582 0.28766173 0.23898433 1.4067287 -0.7138539 -0.44567886 0.49837 -0.54307866 -0.10457389 -0.6125472 0.82505465 0.31819272 -0.5205985 -0.46012595 -1.1508509 -0.626548 -0.6607469 0.270098 0.1375342 -0.69269985 2.2373142 -1.3511724 0.5719413 1.4876409 0.62788564 -1.3934635 1.3246756 1.5156744 -2.3008687 1.5823313 0.72880286 0.31197757 0.37286636 -0.47148496 0.42881155 0.22337657 -0.38703814 -0.8014016 -1.0584767 0.1832147 0.47153568 2.1053727 -0.9106683 1.0208483 -0.2020222 1.588988 -0.26823595 0.9760536 -0.48059273 0.8325009 0.35796458 0.27420717 -0.017607296 -0.27321646 1.2448994 -0.027116116 -0.099574074 -0.014075885 0.791873 -1.0769563 0.12366186 -1.9768983 0.80797035 1.4269558 0.60616046 -1.4122686 -1.9144384 0.72630537 -0.16372311 0.44436303 0.33303127 -0.77214664 -0.87458825 0.42385742
com -0.5024807 -0.10806201 0.14307986 -0.44013995 0.4100668 1.2939264 -0.5504672 0.45725042 0.01967176 0.84930205 -0.4659171 -0.8346073 -0.9561937 0.7838235 0.016639706 -1.1462797 0.49574405 1.0648518 -0.025411535 0.5368218 0.059251156 0.26682726 0.44411898 0.6088819 0.33039007 0.50460625 -0.3034798 1.2280847 0.53547007 -0.26711562 -0.05229353 -0.7527461 0.7688194 -0.40527347 -0.18958648 0.16025558 0.517153 -0.763298 0.75965434 0.07066089 -0.3700845 1.112834 -0.14084323 -0.04933282 -0.042453654 -0.31662527 -0.15442209 0.43743324 0.14006118 -0.43923965 0.911587 -0.16312405 -0.15217698 -0.43174443 0.21164826 -0.68221 0.3571571 -0.028032789 0.5499131 0.07061393 0.22425784 -0.58757675 0.0129510015 -0.23782611 0.18438107 0.3818425 0.50852656 -0.1968745 -1.1182226 1.22881 0.44742662 0.57873076 0.35180286 -0.16455047 0.3704481 0.4678433 0.55008805 0.054427996 -1.3127264 -0.8020409 -1.3449762 -0.122346744 0.46967468 1.4010686 -0.45930314 0.7402303 -0.42126778 -0.748225 -0.62225795 0.28824717 0.3446889 -0.55537295 0.57273406 -0.14498039 0.93844503 0.9166416 -0.48691207 1.3991503 1.0066265 0.41762605
do -1.9820107 1.0698216 -0.06760348 0.076023765 -0.9696019 -1.1369114 -0.011606744 -0.60720515 -1.2486389 -1.0579646 0.46479416 0.50292265 -1.343012 -0.7468794 -0.29523352 1.4071869 1.0631884 -0.41564545 -0.7007272 0.034234893 0.50481534 1.1370838 0.71113414 1.2956088 0.32804567 0.9030323 -0.28150928 -1.4106619 -0.39475128 1.238303 0.8751596 -0.019798048 2.077815 -0.36269778 0.007964697 -0.91183126 -1.2260065 -1.2471486 0.25033382 -1.0466424 0.003392001 0.7860633 0.04886643 1.0307027 0.46299908 0.118084595 -0.26590976 0.28072062 -0.005492708 -0.8943565 0.08257556 0.110249676 -1.7249472 -0.26968893 0.97586006 0.97510016 0.8153845 -0.14734735 1.0593857 0.7875909 -0.45712465 1.4583197 1.0378588 -0.40659186 0.30458644 -0.68214 0.35106593 0.2635536 0.5104005 -0.95663637 0.8802766 0.4796358 -0.9651667 0.30487603 0.23095928 -0.24552517 0.14741042 -0.2100833 0.13949732 -0.54482895 -0.37139452 0.3307543 2.6994243 0.79900825 0.58157927 0.8432722 0.20510691 1.1836926 0.23568566 -0.35833803 0.12195766 1.481257 -0.4995557 -0.60333335 0.651461 -0.71413666 0.16226421 -0.50778854 0.2038021 2.5693293
em 1.2845615 1.7472531 1.320103 -2.1469877 0.28894037 0.49030384 0.5440007 0.07929376 0.76077163 -1.069944 1.4161274 -0.30857712 -0.77285993 -1.1790965 -1.5259475 0.2631335 0.65786964 -0.31091356 0.73157287 -0.37514418 0.24419722 1.5481385 0.5707953 0.6107488 -1.6031462 -0.059858467 0.9227152 -1.1730086 1.4320791 -1.4012723 -0.43215573 -1.3941483 0.85857826 -0.34931737 -0.9691841 -0.74292874 0.3581918 -0.81063884 0.78195757 0.13955131 -0.6005195 0.824163 0.49273056 -0.17203118 0.85825664 -0.31429195 -0.17033069 0.19176179 0.035292976 0.47038245 -0.7280539 1.1072083 0.5069325 -1.0541716 -0.7914604 -1.0724753 1.0407233 0.5939033 -0.15986057 0.3403187 -0.87699616 -1.1947787 0.12133757 0.61734754 0.834857 -0.12863824 0.7122376 -0.027956063 -1.3548825 0.9164529 -0.20864484 -1.1798009 0.34163564 -0.42560053 0.06496412 -1.1805991 1.0844492 -0.25913525 -0.32439584 -0.36194667 -1.0725805 -0.86558545 -1.0714798 -0.5730629 0.27878264 -0.06607321 0.84947085 1.0601 -1.0095526 0.12814546 1.310101 -1.6618338 0.8647651 0.8248187 0.24861452 -0.19173911 -0.26062426 1.147282 0.6720638 0.6336034
ele -0.41016218 0.85884315 -0.3499435 0.2129756 -0.3582797 -1.0239643 -0.43169972 0.15896975 -0.15273263 -0.8133982 -0.15283673 -0.06285038 0.60696405 0.39246446 0.15794519 0.107899055 0.18432592 -0.20819943 0.23796439 -0.45698473 0.18811518 0.15540287 0.07670415 0.6495964 -0.6034857 -0.45016333 -0.3931269 0.49530616 -0.053638864 -0.56280756 0.4805062 0.17088948 -0.085919484 -0.45894697 -0.72000545 1.6656756 0.8600119 -0.59976 -0.6537042 0.36152363 0.6671242 -0.000459331 -0.6786041 -0.59266627 0.04885952 -0.31994092 -0.24864057 -0.39288545 -0.44911197 -1.2004738 0.08183846 -0.5511607 -0.030024374 0.3091133 -0.066670604 0.1539364 -0.0733829 -0.8845654 0.41524443 0.07008072 -0.0638748 -1.0050213 0.8725967 -0.4510687 0.71031296 -0.17690466 -0.46378967 0.3863036 -0.36906794 0.92465746 -0.24773093 -0.52333623 -0.46933886 0.58820283 0.48250276 -0.050894305 -0.6194815 -0.9683489 0.54617983 -0.096764915 -0.32754833 -0.43916538 -0.47226813 -0.20650828 -0.7602522 -0.93270075 -0.012695453 -0.09496157 0.42275816 0.064443216 -0.2009681 -0.1264415 -0.47297403 0.19749008 -0.4088 -0.3062068 0.33597237 -0.09066794 -0.045280684 -0.097786985
da -0.19228993 -1.1825554 0.5425294 0.34882405 0.25238383 0.41771314 -0.93412584 -0.2185576 -0.6716459 1.2939634 1.0339969 -0.6516362 -0.55338645 -0.23826537 -1.5220135 1.1790483 -1.1977599 0.28271958 -0.5338947 -1.0155227 0.7500628 0.7887379 0.3352711 1.0590818 0.23082396 1.425554 2.755877 -0.73522145 -0.30923307 -0.4247871 2.290441 -0.699632 2.034405 -0.22627553 0.69912577 -2.046541 -0.13674146 -1.8548979 -0.6309141 -1.9557514 -0.42538998 0.00032460585 -1.6156913 0.3174444 0.26204512 -0.7711166 -1.4879352 -0.98837715 0.9787452 0.30162573 0.13044955 -0.7436935 -1.1103073 0.37409186 0.5395982 0.3239613 -1.2344486 -1.6433766 -1.2045588 0.33064887 -0.15161435 1.2460226 0.62940073 1.1714705 -0.3110759 1.3331032 -0.12813696 0.31233597 0.14207393 0.9186808 1.2078577 1.891353 -0.3193257 -0.7737741 -0.17000598 -1.2545321 2.4993727 -0.90029126 1.1335244 -0.68733364 0.2010228 -1.467854 0.014856282 -0.14735651 -1.5204446 0.3591322 -0.49373806 -1.312817 -0.09816187 -0.22657561 1.1620995 1.6351663 1.3403112 0.50054675 -0.18662712 0.90499246 -0.29695663 -0.61533386 -0.22733596 0.842619
disse 0.1524246 -1.2427015 0.1876995 0.6611531 0.97189546 -1.0164642 1.046967 0.7866468 0.15969609 -0.21994624 -0.9069546 -0.060943447 1.1425492 -0.18656226 1.9282564 -0.495825 0.09952797 1.086252 0.5051982 -0.5815211 0.901414 -0.4920344 -0.81758875 -0.26019844 0.012331266 -0.23668262 0.15561293 -0.5635805 -0.2955999 0.12908138 1.0403497 0.016728608 -1.868067 -0.90977085 0.49439603 1.078962 -0.37185287 0.08539588 -0.9466833 -0.4029764 -0.096055835 -0.76757294 0.32266515 0.08064451 1.1735245 -0.095095545 -0.486842 -0.76519686 0.57676107 -0.20574833 1.7048534 1.2150486 1.8935146 -1.037918 0.6269873 -0.16832827 0.13183025 1.0875202 -0.5693931 0.99350625 -0.80681086 -0.9692757 0.2588859 0.64416057 -0.20255005 -0.17346022 0.6101696 -0.13253146 -0.95071507 -0.8684001 -0.04358298 0.18065903 0.13809909 0.08030487 1.8624244 0.9413987 1.4780124 2.3124013 -0.391738 0.5048211 -0.25885093 1.1059606 0.94799733 1.442432 -0.50651073 0.252025 0.935929 -0.2674918 0.17222247 -0.40329218 2.0166597 0.9271037 1.0334401 -0.5876765 0.96071005 1.6616718 0.94155097 -0.0096837515 0.2048989 -0.21169953
é 0.7143298 -0.75333214 -0.07596625 1.5294788 0.7433735 -0.5360258 -0.005041371 1.8236786 -0.46017393 -0.52424985 -0.25378615 -0.4880368 0.53385466 1.0322485 0.29806477 1.0460162 0.71570706 2.3061142 1.9389201 -0.3764631 0.77792025 0.80493814 0.4889858 -0.09045163 0.8460709 0.90124 -1.2977273 1.28908 -0.2461017 -0.08374506 1.4115022 0.6973568 -0.6895407 -0.8889032 -0.49198055 0.6059135 -0.29775813 -0.8337319 0.6250236 -0.39647815 0.018935483 0.022937637 -0.4801191 -0.059786014 0.4981918 0.92372364 -0.07567749 -0.35596272 2.5566344 -1.3776958 0.63736737 0.32448417 0.8797039 -0.5394622 1.7310145 0.86004686 -0.5401273 0.87730557 0.68853706 -0.2282033 -0.58924556 1.4256936 1.9831975 0.30246392 0.10023689 0.6782115 0.42367962 -0.56147647 -0.9061518 0.3446174 -0.48941347 -0.5563696 0.06223503 0.13398428 0.76550335 0.743171 -1.2444664 1.0674583 -1.9814878 -0.077775836 -1.4862133 0.015183151 -0.4322545 0.44760466 -0.32451135 0.2207976 -0.047685556 -0.122437984 0.2526845 -0.98509675 2.3469439 0.114891686 0.00282562 1.0622236 0.8814017 -0.4186967 0.8415782 1.3654602 -0.9391899 -0.26111868
no -0.30096403 1.0367172 0.07744876 0.66322213 -1.1165891 0.44416338 1.755482 -1.0520803 -0.9257069 -0.6791951 0.84963715 1.0674328 -0.21020667 0.40938377 -1.1030793 0.8959326 2.2839825 -1.5960195 -0.76986706 -0.38749877 0.062475827 2.569442 -0.76265043 0.74879235 -1.2877201 0.712852 0.42382655 -1.2657527 0.48455527 1.5991975 0.5079807 -0.55441487 1.6773605 -0.22742003 -1.186652 0.70247805 -1.2141627 -1.4358374 -0.29776213 -0.5584115 0.056629602 2.3261228 1.0486485 1.7233192 0.97461754 0.2599911 -0.8471574 -0.0986443 -0.2855024 0.44321516 -1.5477475 -0.37525773 -2.3762033 -1.1162596 0.43166336 1.263141 1.3638405 0.981323 1.5378823 0.53207016 -0.2967391 -0.697389 0.2541289 0.28130284 -0.2319519 -0.0472822 0.044420462 -0.91391444 0.036414422 -1.1110796 -0.39601934 0.0022022463 -0.4891 -0.682519 -0.795901 -0.32553035 0.48216692 0.90574574 -0.0790505 -0.43270087 -0.9688397 0.027084975 2.123606 0.73205954 1.3513844 0.099390455 -0.063533835 0.2298621 -0.2283149 -0.08096797 0.6433558 0.8459384 -1.1870828 0.27858984 -1.1285172 -1.640179 -0.4089087 0.72694826 0.8538625 1.8508162
rony -0.4335245 0.74350566 -0.5073534 0.7574044 0.012466364 0.58210844 -0.16852367 0.15013619 -0.48856026 -0.2396807 0.1461915 -0.31969532 0.70604837 1.3434792 0.95925784 -0.15366441 -0.5906225 -0.25063986 -0.83766145 -0.24758473 -1.2272171 1.1159539 0.2515369 0.7128947 -1.2682704 -0.21242729 0.37629738 0.16960926 -1.8793254 -1.4722283 0.6336498 -0.8366236 0.6763538 -0.98505825 -1.291721 1.5264946 0.8229524 0.527458 0.32770973 0.7139496 -0.006141934 -0.10701372 -0.98702675 -0.94882685 0.18447877 -0.7382218 -0.2553575 -0.7916271 0.49163273 0.10858407 -0.026821833 -0.5603538 -0.36306623 -0.8726611 -0.7646683 0.15831266 0.8878565 -0.85018456 0.34035432 -0.28543374 0.3598443 -0.49236226 1.5440738 -0.7819447 -0.5170477 0.62965286 0.29107267 -0.6720513 -0.70418817 0.69422144 1.0574708 -0.120971225 -0.17586228 1.0296677 0.98381 0.060028818 -0.91533834 -0.4387006 -0.78380877 0.79339623 -0.22805248 0.3646173 -0.33650723 -0.40623084 -1.4294922 -0.27537587 0.29644114 0.32988206 0.6506997 0.8572172 -0.07886766 0.30610466 0.2987766 0.5774814 0.18799958 0.2566831 -0.10066811 0.029230384 -1.0938208 -0.5949945
na 1.2088286 -0.33903483 1.6846504 -0.54587483 0.11125973 1.2995704 -0.8211564 0.59900963 -0.2337999 0.8361595 1.1112279 -0.5501726 2.1602602 0.2804143 -0.7965374 0.026947899 0.19802403 -0.4904099 0.26106733 -0.70459676 -0.09179433 1.3038965 -0.096090324 -0.43612593 0.13814567 0.87899756 1.6127464 0.0029666864 0.44669724 -0.40943545 1.4848523 -2.4542403 1.2535576 -0.1689159 1.0489712 -1.4290782 -0.5170248 -2.3296878 -0.19792514 -0.6789794 0.5933565 0.092562474 -0.94775367 0.068909645 0.29135376 -0.8388774 -1.2581702 -0.3438597 -0.63981885 0.696828 -0.91384053 -0.113243654 -1.0773486 -0.11592029 -0.019253489 -0.32352367 -0.6317487 -0.72780615 -1.3684295 -0.6646312 -1.1011614 0.09502244 0.31657085 1.3958288 0.11314489 1.7606707 0.78334314 0.550189 -0.8062099 1.0153179 1.1467521 1.3429323 0.8031778 -2.0314178 -0.2639757 -1.2612345 1.584853 -0.23883675 1.024856 0.029749297 -0.49742043 -2.004186 -0.9270674 -0.099304825 -0.87045854 0.6939965 -0.62108386 -1.1269606 -0.70860195 0.061100587 0.968674 0.4308754 1.5540671 -0.11765556 -0.98163915 0.72587746 -0.36961126 1.2800701 0.23083074 -0.8806923
você 0.59029454 0.63772696 0.3598536 1.0143162 0.04768652 -2.0521781 0.051754385 1.1266935 -0.4787771 -1.4225419 -0.58292776 -0.76799995 1.3441205 1.2480665 1.4580503 1.0586376 -0.35987157 0.8111649 1.2765489 -0.3143382 0.5037026 0.22469658 -0.10620416 0.5345827 0.4062286 1.3893017 -1.7349044 1.0998303 -0.33293602 0.6315461 0.10671693 0.36715832 -1.6110475 -1.3727008 -0.2753121 1.7918351 0.3880774 -0.38891056 -1.4279524 1.0079553 0.36559173 -0.8640892 -1.3374615 -0.8259581 0.30137914 -0.65528905 0.17769888 -0.722162 0.13955793 -1.0165118 0.48221728 -0.49532998 0.52171683 0.14034289 0.505123 0.90523225 -0.48749205 -0.830111 -0.34491175 0.6164255 -0.87559944 -0.20638628 0.9448549 0.693229 0.27733812 0.7604705 -0.77285784 -0.0687719 -0.63313544 0.75851035 -1.3059835 -0.6834631 0.06293274 0.27917165 -0.05738813 0.9690455 -1.3734022 0.096655995 0.42220554 0.5039755 -0.5480477 -0.96190923 -1.2932957 -0.43143553 -0.9773059 0.0932743 0.12191564 -0.29029822 0.8077135 -0.38915867 0.9069782 -0.09602695 -0.9149939 0.7507627 -0.104179434 0.18815081 0.6536015 0.33339116 -0.01931443 0.04045896
mas -0.6095712 -0.7120864 -0.08829657 0.27779016 -0.05735114 -0.23422971 -0.358114 -0.2724397 0.36719278 0.37750268 -0.72162116 0.45914742 0.5393355 0.13405822 0.49097013 0.34977388 0.32256022 -0.6868992 0.16287343 -0.699525 0.6533763 -0.155467 0.20085274 -0.59361714 0.040367007 -0.20706579 -0.41703606 -0.19005628 0.28498712 -0.55799353 0.6700796 0.1278443 -0.6504938 0.42857286 -0.21534735 0.7980162 0.0044796616 0.4583288 0.2374138 0.034004513 1.3225707 -0.5082999 -0.18915623 -0.4557618 0.28030244 -0.21700017 -0.9740868 0.03294458 -0.23322406 -0.58598626 0.6748148 -0.39972192 0.6357913 0.13609034 -0.3914052 0.4600755 -0.23994134 0.42604476 -0.29979065 -0.16726215 -0.3134216 -1.2870749 0.28001115 -0.22602095 0.6813935 0.23321465 -0.045342065 0.08295479 -0.0400083 1.3111303 0.22975184 -0.0103513375 -0.2655773 0.18664399 1.0222667 -0.1914752 0.12073987 -0.5930796 0.6538178 0.1568175 -0.96972835 -0.24063106 -0.9834049 0.650612 -0.42085746 -0.8651826 0.35316163 0.18818651 0.20200202 -0.12549883 0.7333476 -0.065557405 0.23181328 -0.19955498 -0.3845848 0.6143878 1.2523785 0.3590958 0.616195 0.66435534
por -0.14548579 0.859294 -0.04257882 -0.98308724 -0.69851196 -1.1418242 0.26477662 -0.18730876 -0.91030586 -1.166927 0.2037435 0.45381314 -1.328093 1.0648031 -1.2331294 -0.17421551 0.006433825 1.8111047 -0.4683585 -1.5654836 -0.616622 0.98281986 0.5220213 0.8255149 0.12359175 -1.05481 -0.3538506 -1.211293 0.11849091 -0.8632241 0.44697013 0.43327332 0.7125624 0.11460124 -0.11375743 -1.0934719 1.025014 -1.3324599 1.2877929 -0.3996012 -0.8739655 -0.29594335 1.2614243 0.1858334 0.7489233 -0.4751414 1.511337 -0.80134183 0.97710145 -0.6243429 0.1775791 1.7470196 0.5588879 -0.22195151 2.0512831 0.027126735 0.7493039 0.84710276 0.4040301 -0.3518685 -0.39648739 -0.3021984 0.3059965 0.7981444 0.48586604 -0.58239526 0.04049228 -1.4160255 -0.7930258 1.9832731 -1.2294836 -1.3362896 0.01879788 0.29766783 -0.08434625 0.19823122 0.6312673 0.8027949 -1.1522398 -1.0080781 0.7703368 -0.6749519 -0.66852814 -0.13706194 0.282239 0.61440235 -0.46994 -0.064084046 -0.4836315 0.9284905 0.70069665 -1.4965311 0.28579566 -0.002209003 0.5827957 -1.7328582 1.5108716 0.32354364 1.2081244 -1.0821097
as -0.19920643 1.1195079 0.2759845 -1.4147091 -0.95417434 0.065636106 -0.096425705 -0.32590595 1.2068849 0.96856403 -1.4268233 0.4531442 -0.8627879 -0.94532734 -2.2592528 -0.53644174 1.8841829 0.33344778 -1.639466 -0.68746376 -1.471689 -0.27740294 -0.8251178 -2.6446462 -0.18817148 -1.5691965 -1.6692637 -0.61068434 -0.18609461 1.0785366 -0.27294827 0.8080664 -1.0481377 -1.032818 -1.0830534 1.6446093 0.629472 -1.534208 -0.31130567 -2.099294 -1.220048 -1.66229 1.5294234 0.25856113 -0.34072652 -1.8364018 0.95390767 -1.1164412 -2.2837408 1.2640151 0.32517752 -1.0043993 -1.6706362 1.1347067 -2.2300608 -0.9218973 0.8427177 0.08910087 -1.7467544 0.22814554 2.856847 0.18183845 -0.21433748 -0.11699142 1.185553 0.8716035 1.8309474 -0.51238924 -1.9969795 -0.71375716 -1.1286498 -0.56067985 -1.0595262 -0.67317384 0.072192 -0.6410493 -1.3230189 -1.1123219 -0.6666244 1.102097 0.7825447 0.13276601 -0.17253825 0.8956044 -0.1664559 -0.18220171 0.42288622 1.7188816 -0.76735914 1.8491716 -1.7101718 -1.3995266 -0.14830305 0.8324972 1.1703907 -1.1595635 -1.208568 0.30485255 -1.0731028 0.20239744
mais -0.9212009 0.44259566 -0.640898 -0.07988174 0.2757759 0.42273787 -0.19191161 0.14983894 -0.7867737 0.30520687 0.5650328 0.5158163 0.8417456 -0.6553998 -0.38205037 1.1156098 0.21649125 -0.30101138 0.8864842 -1.3592896 0.2551347 -0.06401075 1.4602175 -0.5572383 -2.2772176 -0.8852399 -0.22370231 -1.3181529 1.0589672 0.14099538 -0.31596166 0.27402988 -0.04642057 0.5456352 0.332424 0.35052767 -0.5969995 0.4993605 0.9990286 -0.39061663 1.4729658 -0.71513194 0.34474865 -0.26890898 0.59102845 0.4824011 0.46972206 -0.72344476 0.45463976 -0.4748306 -0.03874268 0.16058439 0.9182333 -0.37498733 -1.3661718 0.55688953 -0.26225194 1.0419623 -1.0164912 -0.102017775 -1.1082257 -0.47314906 0.22316001 -0.6461089 0.29215625 0.30804023 0.33064863 -0.13348354 -0.88047796 0.98903 0.93899214 -0.7836017 -0.062259853 -0.39357018 -0.10176408 -0.82127565 -0.5293093 0.440545 0.5363832 0.14823082 -1.5067464 0.3276681 -0.58816254 0.030734086 0.40617758 -0.060031477 -0.75673467 1.15965 1.2674527 0.6584739 1.463004 -0.9210345 -0.57498735 -1.8722031 -1.1118742 -0.9216489 -0.10223201 -0.3724171 1.8789508 0.63312453
estava 0.1938793 -0.5688909 -0.009145157 -0.036986303 0.83241814 -0.5729582 -1.1386397 -0.28979516 -1.1913191 0.1768008 0.15503813 0.13349138 0.054775678 0.1882442 -1.3316997 -0.1036793 1.6415522 -0.25371855 0.1749351 0.3063568 -0.60479283 0.8764337 0.64156514 -1.7146037 0.31519032 -0.43447027 -0.660085 -0.023969278 -1.1976765 -0.16416866 0.18475991 -1.1710564 -0.04080548 -1.1787863 -0.2014362 0.069198675 -1.3931804 -1.0777037 -0.0844357 -1.2747437 -0.53401864 -0.4818546 -0.45930257 0.19094035 -0.048464127 -0.8811142 -0.4855943 -0.10041696 -0.4419028 -0.77589834 -0.12587953 -0.024932198 0.8132284 0.29913086 1.5417707 0.8847596 -0.7029086 -0.23147908 0.77904636 -1.4848188 -0.33097702 0.13276137 1.5383801 -1.0384996 -0.026548991 1.1390234 0.058111344 -0.066361256 -1.1763997 -1.0676466 -0.807962 1.4415914 -0.31498992 -1.1158717 0.5649658 0.6714773 0.06830628 0.9772781 -0.34202424 0.07295174 0.16210166 1.3812613 1.0118374 0.4074934 0.28609264 -1.0716916 -0.71842676 0.3903075 0.38432628 0.71362996 0.13660304 1.0204668 -0.6930915 -1.1472716 0.3751115 0.18551183 0.7712732 0.75691676 -1.0620688 0.7744327
como 0.45873314 -0.3900904 -0.7750464 0.5721341 -1.0262436 0.6082032 -0.15015157 -0.23382743 0.28161767 -0.6656317 -0.30539012 -0.26683778 -0.064619355 1.3968331 -0.4804041 0.74816096 1.1728711 -0.22318986 -0.5519152 0.4342728 0.7717252 -0.11344934 0.37978742 0.19104011 0.34990194 -0.7616922 -0.97784066 0.2749194 0.19425195 0.6711365 -0.25765723 0.63451904 0.62145996 -1.2462084 -0.3190675 1.1197195 1.149065 0.041428093 0.07611178 1.1575764 0.6728554 -0.012161357 0.2712257 0.16901055 0.3516804 0.3949666 -0.46275085 -0.19372346 0.16291006 -0.8695304 -0.021354025 -0.745572 0.06591552 0.51624876 0.09868865 -0.66090596 -0.5950532 -0.18613926 -0.2171546 0.9912965 -0.68154323 -1.7478154 -1.1009609 -0.4038414 -0.42343792 -0.4224945 -0.5499124 0.91155696 -0.37432128 1.5222576 -0.51996815 -0.80084896 0.4819873 0.74082077 -0.27346888 -0.41125008 -0.31260556 -0.15312245 0.18707243 -0.4084833 -1.2472004 -1.5437567 -0.885662 0.6004238 -0.8133026 -1.3860629 0.7424459 -0.8885065 0.09169695 -0.13530806 -0.62840396 -0.39745995 -0.12631345 -0.54332674 -0.60974884 -0.35158026 -0.17037192 -0.0037444206 2.0540829 0.3694229
quando 0.06214328 -0.3518392 -0.015830265 0.49917495 -0.039526716 0.87588936 0.47514454 -0.30966303 -0.8934076 0.021904556 -0.7532885 0.08219145 -0.29490367 0.24787885 -0.051895585 0.1002421 0.10315506 -0.9711873 -0.4292875 -0.5133526 -0.93476844 0.5915438 0.6038393 0.5452735 -0.24664707 0.25088248 0.8539891 -0.29595566 -0.16445124 -0.44724756 -0.060346723 -0.49811128 0.5143118 0.19719729 -0.0345421 0.014885542 0.83246243 0.625897 0.5815483 0.64863735 0.25990856 -0.2227287 -0.20918804 -0.42207846 0.6721393 0.37477568 -1.3391995 -0.4028196 0.42376015 -0.68167794 -0.11250329 0.08754113 -0.56056654 -0.36437136 -0.38997433 -0.67473954 0.057155497 0.20397319 0.02003139 0.39200658 -0.52061087 -1.0528604 -0.18231624 -0.40525198 -0.2477034 -0.14111504 0.11453646 -0.20380433 -0.9208516 0.4721176 -0.08991856 0.42733374 -0.061612763 0.19688027 0.16218206 -0.36895096 0.70010364 -0.26307485 0.45411965 -0.20444122 -0.9046364 -0.60361433 -0.2270141 0.1260992 0.19155073 -0.6847474 0.48212063 0.96198714 0.3737623 0.13090186 0.11427091 0.50387675 0.65491843 -0.53637683 0.12259126 0.34099838 0.77895015 -0.45679033 1.0005369 0.40744436
eu 0.50777173 0.8346288 0.22952954 1.6518761 -0.44243535 -0.67193586 0.6711269 0.11842943 -0.0095203025 -0.43444836 -1.9104141 -0.9336464 0.2882053 -0.5935415 -0.15928946 0.062121484 0.42714632 -0.40523076 0.7703528 -0.4533885 1.1615742 0.916878 -0.6966859 0.007768864 -0.63069713 1.35005 -2.0243216 -0.100372635 -0.9348979 -0.04734493 0.060796715 0.6289478 -0.58295375 -1.1094805 -1.0402666 2.0365615 0.39069328 1.0344269 -0.23791699 1.1913756 0.6779027 -0.54186314 0.019370733 -0.40363184 -0.39933255 -0.22508723 -0.20887405 0.17480032 1.0244733 -0.89390236 0.11868318 -0.57468826 0.9005694 0.24613777 -0.19135529 1.3869073 -0.15066499 0.45360425 -0.7644846 1.6085756 0.625676 0.28678682 0.08930257 -0.26959065 1.0720919 0.13555817 -0.7693871 0.99051476 0.2841342 -0.37969986 -0.6988015 -1.0934656 0.432931 0.23934592 1.0880609 0.5005632 -1.6735808 -0.15069216 -0.40263242 -0.0049628657 -1.9468068 -0.2985803 -1.7767494 0.45344013 -0.51099384 -0.5653888 0.56377524 1.795888 1.2580415 -1.6194862 1.0610489 0.12744199 0.9278751 0.07164026 0.90712744 -0.090099655 0.52250713 0.039817236 -0.43681467 -0.19683641
era 0.3969859 -0.5199307 0.64645004 0.57722986 -0.38854522 0.81545746 -1.2056929 -0.053043395 -0.08170115 0.03593063 0.77983886 0.14672613 0.64652735 0.4376952 -1.7552705 0.49473473 1.9698693 0.49260882 1.3187981 0.02204045 1.5295349 0.8094445 0.22712499 -1.1220012 0.019559925 0.042521898 -0.3525135 0.5273897 0.5727332 0.70718074 0.10970237 0.027107839 0.61205226 0.43756852 0.048960537 -0.06935163 -0.58170545 -1.2795988 1.2157259 -1.5132489 0.40113682 0.20108563 0.5980261 -0.06832123 0.12855144 0.49420562 -0.7048952 0.9368356 -0.17661603 -2.4740973 -0.11643717 0.2814321 0.32319978 -0.22610688 1.1018802 1.9280362 -1.7191737 0.783848 0.5542792 -0.88938475 0.12106161 0.9137205 1.2722785 -0.64067537 0.34003633 0.082267694 0.6702083 0.48940355 -0.46348074 0.30791456 -0.087345175 0.8162239 0.026402755 -1.3409812 0.952298 0.8560509 -0.0018914348 0.20229863 -0.5947922 -0.5263425 -0.8436954 0.08562193 0.6776105 1.3040978 -0.23110273 -0.061195098 -0.86926556 0.2809691 0.51908934 0.00067577173 1.424143 0.67488545 -0.7887269 -0.72635275 0.73788196 -0.8564712 0.61181456 0.9890631 0.38419992 1.2184958
à 1.3589984 -1.1843807 0.99285185 0.16952021 -0.017933737 0.63052917 -1.2012049 1.181939 0.15596528 -0.5783286 1.458057 0.70008487 0.1588866 0.12685505 -0.65775466 1.4720831 -0.5453565 -0.83120066 0.73408246 -1.4377447 -0.4599217 1.2357775 0.7464315 -0.55372083 1.4252847 0.048919592 2.5268562 0.51898724 -0.87191147 0.99521047 0.3389808 -2.6571302 0.67922133 -0.5181767 1.8139224 -2.1238549 -0.1778825 -1.2973627 1.0045791 -0.57295275 -0.41514063 -1.2980438 -0.72252333 -1.4556184 0.9011436 -0.8678637 -0.56375176 -0.00036655556 -0.5824184 1.2807009 -1.6358391 -0.7336476 -2.5228057 0.34100854 -0.19673438 -1.2741917 -0.5772858 -0.9771469 -1.6188669 0.52717847 -1.0679821 -0.21037169 1.3322388 1.112261 -1.0318002 0.6732546 1.3619199 1.0811684 -1.1805638 0.8412955 0.46508914 1.7264196 1.1362137 -1.1382189 0.077028096 -1.9856886 0.39856917 -0.38692924 1.0663053 -0.89471984 0.86516243 -2.4000885 -1.364071 -0.18941078 -0.5407108 0.10718335 -0.058076244 -0.14999919 0.018088443 0.8290137 -1.1139737 0.4916966 1.818967 -0.83728236 -0.62804925 1.3330678 0.78511703 -0.10326977 1.4020749 -1.3653609
ao 0.11099172 1.0143447 -0.09245874 1.7113355 -0.8314189 -1.5765966 0.5831563 0.015628356 -1.0671444 -2.0756226 0.6619217 1.3476666 -2.120393 1.1385779 -0.3237609 0.8364066 1.0813341 -0.663162 -0.31539553 -0.3947872 -1.2155193 1.2578888 0.29201284 1.7740709 0.7847745 -0.19669786 2.017254 -0.45263126 -0.52390826 1.1888409 0.9408272 -1.7950625 0.7726609 -1.3541992 -1.0467405 0.14529583 -1.1159141 -0.16502245 1.5422091 -0.24798666 -1.0496988 0.14613597 0.30081683 -0.6564313 0.72489184 0.22405404 -0.6571571 1.475133 -1.5919708 0.2283483 -1.187327 0.93142325 -2.9110322 -1.4308913 1.295434 1.6460979 -0.9032729 0.1968415 1.3958663 -0.5645221 -1.0292238 -0.6272653 0.56287926 1.5839242 -0.022791337 -0.7752593 0.5865349 0.63710785 0.33675832 -0.15808772 0.41295776 0.108176015 -1.0266169 0.93301237 0.7111004 -0.893502 -0.3050975 -0.13348499 0.31424463 0.22838771 0.40907112 -1.3437735 0.9049507 0.79496926 1.3899437 1.3664693 -0.31878647 1.2789749 1.094449 -0.18321872 -0.27140573 0.150323 1.3425075 -1.3207814 -0.22162876 0.6576092 0.5080923 -0.9213288 1.9547515 -0.17788067
muito -1.0945754 -0.9645262 0.185478 -0.17650235 -0.9428624 -0.69136083 -0.39982465 0.97977006 0.5156742 -0.28704092 -0.0788205 -0.34342003 0.64443946 1.4389321 1.1889455 1.1480552 -0.06027697 0.46953 -0.14554413 -0.6891694 0.99784595 0.7181922 -0.2940108 -0.39791718 0.0055556097 -0.9300712 0.2691255 -1.7855741 0.25295898 0.3353861 -0.747827 0.16124871 0.40763396 -0.29847077 -0.5918055 0.9290993 -0.9674531 -0.07542971 0.8763291 -0.12506638 1.7578464 -0.23544236 0.62621003 0.5211479 0.44304442 1.4586775 -0.09527846 -0.3443774 0.08319022 -0.037076145 -0.57878965 -0.23086123 1.470087 0.052122425 -0.4161829 0.33476996 -0.36433396 0.6461489 1.0987186 -1.1449817 0.44603884 -0.39686826 0.010325776 -0.36794034 -0.4299707 0.33275658 0.010565169 1.3496492 -0.7150203 1.5525602 2.136578 0.27708545 0.6745576 -0.6023947 1.1293823 1.5881484 -0.67333513 0.4035727 -0.4352104 2.1416457 -0.6274641 0.56412625 0.30799162 0.28342408 0.58519393 -0.108478636 0.26224303 0.814388 0.8451966 0.45735347 0.11517681 -0.31443313 0.043055862 -0.9339547 -0.7782035 1.0684075 -0.46493584 0.23236164 0.28045702 0.52593595
foi 1.087037 -0.26444334 -0.56789476 0.9798901 -0.16838148 0.07648984 -0.35097173 0.23047799 -0.68052495 -1.7789149 0.96310836 0.10122765 0.60918695 0.18140374 -0.27225354 0.85847056 0.6398248 1.1987122 0.7892063 -0.21439235 0.07302101 0.60854965 1.5410333 0.37588343 0.30234957 0.12063942 0.32581037 0.9612737 -0.42799193 0.41502592 0.80650485 0.067611806 -0.57096654 -0.45561436 -0.35185492 0.27227077 0.15809023 -0.6949135 -0.3632297 -0.48315907 -0.37433845 0.07465281 0.040653877 -0.41078857 -0.12067344 0.86843276 -1.1751645 -0.5751164 1.6702577 -1.541066 0.046391223 0.13748682 0.14904846 -0.90792376 0.6396549 0.7801943 -1.258617 0.76267654 0.2154472 0.13308047 0.24505872 0.44732955 2.1756334 -0.38157123 -0.48108143 0.47942397 0.36430955 -1.0719478 -1.3267874 -0.8086967 -0.35935554 -0.067349195 0.03586195 -0.19853166 0.3608879 0.11830341 0.028621761 0.09682893 -0.84927875 0.30885834 -0.59416264 -0.13569227 -0.40258077 0.3985911 -1.993656 -1.0121044 -0.09398632 -0.20499285 0.6558185 -0.97158957 1.2192507 0.6951037 0.37254182 -0.4909584 0.4271883 -0.9746572 1.3778396 0.9108553 -0.63825136 -0.09445269
hagrid -0.25256914 1.0091616 -0.07532796 0.012606575 0.45203927 -0.4278181 0.22169887 0.6003084 -0.26390606 -0.15237957 0.2665055 -0.9757299 -0.015969992 0.25822705 0.22697558 -0.123655304 -0.36889863 -0.6701343 0.009358405 -0.3895247 -0.5291369 0.7470227 0.27318078 0.45006916 -0.81068844 -0.18010189 0.1714181 -0.602063 -0.83325315 -1.1380887 -0.09934724 -0.7489838 0.195878 -0.41445756 -0.55128026 1.2624005 0.9146586 1.1948196 -1.0515966 0.82238793 0.15462787 0.9349422 -0.31795585 -0.38555625 0.05705773 -0.38601583 0.5081817 0.01246445 0.760381 0.89386404 -0.525733 -0.54174477 -0.5975125 0.036773946 -0.35319057 -0.61270666 0.16704373 -0.41788244 0.33193383 -0.3195072 0.18359447 -0.61916864 0.96967727 -0.42959067 -0.06415857 -0.21974908 -0.77272546 0.38760406 -0.80842155 0.112488426 0.46845275 0.023436302 0.14434572 0.7057793 0.008547372 0.059315294 -0.34223145 -0.623067 -0.043014456 0.36717236 -1.0735478 -0.63595194 -0.7246771 -0.18645576 -0.950045 -1.0172706 0.06501212 1.4142649 0.8731186 0.16920437 -0.06763278 0.14564216 0.32960773 0.7576466 0.24234445 0.41851538 0.18215953 1.0316905 -0.77314574 -0.44986293
está 0.9635174 -1.1111667 -0.17434943 0.12741359 0.38614166 -1.103497 -0.6701203 1.7849898 -0.67207843 -0.41204777 0.13119872 -0.5915779 0.8888227 0.7946572 1.2299324 0.9919498 0.6512584 1.9387356 0.4228612 -0.56342316 -1.9736384 0.83209276 0.49252275 0.12607881 1.4260603 0.069134966 -1.6966642 -0.20010455 -1.9866277 -0.23384261 0.9859187 -0.18085028 -0.15152743 -2.5799053 -1.0690217 0.74571764 -1.9343903 -1.9996855 -0.44752553 -0.3822157 -0.28950173 -0.5297337 -1.3945869 1.0865526 1.2355827 -0.037608497 0.5694771 -1.574499 1.7051984 -0.17456844 0.546864 -0.4662709 1.6021756 -0.6067538 1.3225391 0.60491997 -0.7976429 1.5100269 0.27221194 -0.84357595 -0.685005 0.73746896 2.1399283 1.1216899 -1.1470696 1.277623 -0.35052443 -0.86266726 -2.1396034 -0.91883934 -1.4331987 0.51765984 0.83988 -0.86942565 0.68152714 1.2284238 -1.2111039 1.5148381 -2.8927684 1.3388712 0.36199197 1.0293092 -0.29297775 0.23060925 -0.97194844 0.3273422 1.0072068 -0.85115486 -0.20338657 -0.98596466 0.8263353 -0.06276951 0.30182174 0.74832416 1.2382282 0.46506324 0.3441919 1.6680245 -2.2706232 -0.16196486
dos -1.0790529 0.16307056 0.053195503 0.1399038 -0.20490879 0.19223593 0.32616076 0.34988153 1.0840871 -0.48181933 0.23013 -0.5900549 -2.6375809 0.4051164 -1.6365815 -0.50288993 -1.4522833 0.4219871 0.46430555 0.04432976 0.1206233 -0.8404103 2.1518803 -0.2574145 -0.11330508 -0.814526 0.7756703 -0.4974701 1.6691027 2.1005714 0.038806003 0.32149982 1.863894 -0.48126012 0.9144665 -2.1471841 -0.7450679 -0.9565609 0.38175058 -1.631605 -1.5000064 -0.5527782 -0.30202958 0.31046057 0.12336553 -0.06122919 1.9993882 -1.7217766 0.60755783 1.33563 1.7841974 -0.7005534 2.084706 1.2858266 -2.135381 0.9947388 0.13589436 0.816854 -1.1370189 0.34081998 -0.23153412 1.0294615 -0.20166878 -0.14495967 -0.7496982 -0.67508334 0.29620475 2.2593915 -1.2545788 2.1639721 -0.2404954 1.5574772 -0.19869654 0.044881146 -1.4848447 0.5427451 0.42895326 0.31998518 -0.007885509 -0.3691919 -0.42735398 -1.0195229 -0.57979417 -0.84472656 0.6790443 -0.12387557 0.3271197 -2.5287952 0.9150897 1.1428722 0.99425733 -2.2269793 -2.6627107 1.9302355 0.14223337 0.4670746 0.007868939 -1.4614738 -1.3570014 2.3519678
coisa -1.3726184 1.9521595 -2.2335887 -1.6445267 -0.78845674 -1.082167 -1.3767259 -0.8931845 -2.7580788 -0.6779586 1.2276505 -2.211118 0.41214234 1.3496968 0.5127148 -1.9043697 2.383296 -2.3395398 1.9030162 1.4046239 1.8849373 1.3848166 2.1822102 1.0869399 -1.5616057 2.3826501 -2.1987786 -0.28907138 0.51638216 -2.2415602 -0.4517943 0.032257095 0.8086834 0.06709738 0.0069441865 2.804476 -0.16055565 1.177105 -2.7011795 0.001555941 -0.8347434 0.22883399 0.22957973 0.3201268 -2.129121 -0.9331691 1.163091 -1.8978274 -0.8133728 -1.2230036 -1.675608 0.09656298 2.1250255 1.2335562 2.9050689 -1.8423287 -0.038713314 -1.8971397 -0.504566 -1.9697113 -0.023618529 -0.018967839 -0.9127038 1.4775308 -0.45376045 1.5235653 0.28420523 -0.27929172 -1.8671255 2.019354 -0.60657215 -1.7725323 1.0778809 1.018959 -0.3714482 2.0960033 -1.1232368 2.3654451 -1.6799349 -0.89227235 -1.3176371 -1.3998909 -1.2062533 0.11166188 0.17030926 -0.15915005 0.42677632 0.67499226 1.1457999 -0.20845972 0.390564 0.053270187 -0.6211827 -1.9843832 0.6552816 0.00052450993 -1.126243 1.4725548 0.40479213 -0.9257614
me 1.2380017 0.4244283 0.09013674 0.73274785 0.33337072 -1.9715962 0.8227863 0.4463056 -0.6673168 -0.49993625 -1.8293012 -0.8985313 0.4119595 0.32317835 0.46303436 -1.1341146 -0.71990263 -0.0074464623 0.6996426 -0.81645477 0.34831613 1.4388251 -0.37453905 0.13140441 0.58211124 0.9709928 -1.0228041 0.37522697 -0.7848942 -0.2360725 0.9227219 0.74265593 -1.0088687 -0.24029317 -0.4909726 0.9576957 0.76071876 1.2805263 -0.3803875 0.6276739 1.0399373 0.1764529 -0.21126474 -1.2886072 -0.4283731 -0.40120733 -0.6461077 -0.13502818 1.7786547 -0.41743866 -0.01506487 -0.74984646 1.069584 -0.5834235 0.49707907 1.121864 -1.164847 1.2405322 -0.18492831 1.2670438 -0.12293923 0.056547243 0.16566251 0.73268014 0.1335375 0.7312689 -0.6728746 0.32673326 -0.31499842 -0.45380613 -1.4159269 -0.48509362 0.95375013 -0.67983025 0.3888126 0.8393598 -1.1567719 0.26255637 -0.579259 0.2266752 -0.91155154 -0.059463676 -2.4020605 0.3481914 0.41212338 -0.12823261 0.5957688 1.1883662 0.8602501 -2.0378997 1.1163092 -0.15323883 1.164965 -0.17934471 0.83740073 0.18073338 1.138444 0.51832044 -0.38314915 -1.688696
hermione -0.4631976 0.94811815 -0.4182623 0.43152463 0.07248507 -0.31286386 0.2719116 0.9342537 -0.56104857 -0.31336942 -0.25307107 -0.12293682 0.14502381 0.96044636 -0.039604872 -0.64430505 -0.12149206 0.08974774 0.21457511 -0.55212533 -1.6378744 -0.09189563 0.055806044 0.10108129 0.06749215 -0.17999886 0.18403956 0.18767901 -1.3548989 -1.19627 0.13513683 -0.47932786 -0.50623107 -1.0687144 -0.8922642 1.4041487 0.21918741 0.30063966 -0.5509165 0.10850182 -0.2757527 -0.02856298 -1.2591624 -0.8571834 -0.38249716 -0.18745112 -0.27215797 -0.60142285 0.6062709 0.009153373 0.4996721 -0.7699234 -0.71402884 0.2027135 -0.77617 -0.13526587 0.8037691 -0.7685369 -0.3507713 -0.16982071 1.1461416 -0.87167966 0.7878166 -0.9295539 0.3483501 -0.62777567 -0.47663873 -1.0463588 -0.91845816 0.79390883 0.7775986 0.18320884 -0.20636393 1.5082945 0.47535223 0.44053182 -0.21246226 0.10655383 0.2275095 0.31053686 0.4020402 -0.29740143 -1.1714175 -1.2331871 -0.6290047 -1.1114005 -0.88380885 0.84176534 0.5827362 1.0760753 0.23184069 0.8992234 0.30238414 0.7581514 -0.41216096 0.25711462 0.22903234 -0.69733584 0.38427204 -1.2450029
sua 0.15220512 -0.6642259 0.39287642 -0.9821785 0.71679527 -1.0496919 -0.19587041 1.6566659 0.8061058 0.32841027 2.030242 -0.5762486 1.3459626 0.5434922 -0.34916374 -0.10257381 1.0913152 0.4677808 0.9716886 0.8685171 -0.088398196 -0.5969552 -0.32111517 -1.1827976 0.610587 -0.30896252 1.6711631 0.8463509 0.77985984 -0.41008887 1.8492357 -0.73811567 1.0818617 -0.8252655 1.831204 -0.81922925 0.44830835 -1.251142 0.062503606 -0.12913771 0.7645849 0.23546275 -1.4580611 -1.1380908 -0.41890445 -1.1332831 -1.1977468 1.0010898 -0.9844162 0.7134707 0.04511897 -0.91373783 -0.77629095 1.073938 -1.2962584 0.32668182 -0.6149603 -0.81260175 0.007705751 0.470151 0.07978583 -0.7218404 0.5083155 0.5788791 -0.33461228 1.0187725 -0.24489102 -0.059781678 -1.4806361 1.0071999 0.36549637 1.014164 1.3318957 -0.107795455 0.5116908 -1.5482756 0.905566 -1.1405158 0.9261308 -0.65159 -1.6898853 -1.069982 -1.329188 0.53205854 -1.2789797 -0.21028733 0.038162235 -2.056306 -0.5348396 -0.97834456 -1.0788672 0.42893875 0.8742196 0.88490593 -0.1364565 1.0235186 -0.93739456 0.72981817 -0.05899445 -0.607978
seu -2.0616233 0.4215096 -1.0881084 -1.1858532 -0.1546036 -1.7644479 -0.42351988 0.29839024 0.40031815 -0.6495918 0.68721247 -0.6549147 0.15263826 0.36522186 -0.5378172 1.2797798 1.9189065 -0.80925316 0.40565294 -0.68873465 -0.2291881 0.07991074 -0.4715951 0.59122026 0.33458766 -0.6917691 -0.36652926 0.24030758 -0.039917212 -0.38995585 -0.13922897 0.59224045 0.68921024 -0.513096 -0.4165087 0.39267135 -0.18674463 -0.64344144 -0.69279313 0.3739798 -0.4962605 2.476375 0.12414545 0.29958564 -0.24915352 -0.26872358 -0.9831687 2.166402 -1.0905992 -0.5377052 0.1956752 -0.76641726 -0.7388244 -0.44794184 0.73630345 1.5852013 1.1220825 -0.9143542 1.8575437 1.6319075 -0.35724923 0.54782164 0.61014986 1.2726173 -1.3248149 -0.50081396 -0.83303255 1.1070867 0.4520505 -2.1692584 1.3327266 -1.2112926 0.3893096 0.86952704 -0.4515026 -0.9279654 0.25463757 -1.0835662 -0.36527127 -1.113034 -1.4203477 -0.34156057 1.0481104 0.91125214 0.5653087 0.7816036 1.752749 1.2866683 1.2262847 0.39878637 0.18145368 1.5521872 -0.86731344 1.4902337 1.3911779 0.39494914 -1.2648501 -0.8671727 0.16299057 0.7459795
eles -0.54787844 0.64725816 0.13142529 -0.006195524 1.0197378 -0.5522216 0.35449937 0.32765856 -0.01129838 -0.79202926 -0.50846606 1.3761834 -1.0048504 -1.1321007 -0.551941 0.60232574 -0.6456741 -1.3636359 0.5173341 0.20380029 -0.6139558 0.49945527 -0.14609501 -0.5199312 -0.11264222 -0.53969663 0.18675199 -0.102227755 -0.4978748 0.7111942 -0.44571587 0.09946368 -0.8065727 -0.3012381 0.04090091 0.7744487 -0.47306114 -0.73843056 0.40102586 -1.5922049 -0.8559981 -0.2881488 -0.5210433 -0.38858008 0.56325126 -1.2300181 1.2461971 -1.0421598 -0.26759195 0.73136646 -0.6787419 -0.90125406 -0.76544905 0.3293929 -1.249592 0.60035944 0.22054222 -1.0415765 -0.46420068 0.40231517 0.96787 -0.11734781 0.29280764 -0.34391043 -0.91401494 0.08819954 0.16831921 0.1989694 0.35529563 0.3369392 1.1858069 0.093158096 -0.40314758 0.7433477 0.5167677 -0.047890574 -1.1472595 -0.44476348 0.56181884 -0.036915127 1.1824888 -0.6384322 -1.1460129 0.8414012 -0.0091092065 -0.979814 -0.07369697 0.61479485 0.27328444 0.6352145 0.65422016 0.6097387 0.18025534 0.22400737 -0.46512684 0.533913 -0.57435787 0.05949606 0.57256824 -0.9201947
ela -0.18192376 0.76006544 -0.6398683 0.1714754 0.08442889 -1.1687955 -0.45902693 0.3344327 -0.7384022 -0.46593714 -0.40791193 0.18798566 0.48454162 0.19275697 0.37067404 -0.5962165 -0.6280623 -0.30514428 0.43343115 -0.35063425 -0.2663472 0.6751453 0.30782974 0.5864128 -0.31916025 0.30166107 -0.23014997 0.42511687 -0.4932432 -0.3884751 0.51413435 -0.14880222 -0.47962147 0.12305389 -0.3030794 0.96359885 0.707081 -0.26502904 -1.4556229 0.11359025 0.05634027 0.22245498 -0.77119607 -0.66830313 -0.7332258 -0.43444964 0.02531731 -0.6609882 0.23958108 -0.53062403 -0.18024576 -1.3266292 -0.5969444 0.20489274 -0.24917755 -0.40952832 -0.34310657 -1.1057732 -0.077303596 -0.10271938 0.28170562 -0.6734103 0.99815553 -0.10444228 0.67685246 0.14774844 -0.110287935 -0.562294 -0.60877305 0.7954037 0.17116106 0.40638524 -0.164422 0.23791054 0.04126777 0.8166263 -0.57330304 -0.40606445 0.3668407 -0.058734793 0.18894444 -0.94246805 -1.0765309 -0.63757 -1.1783619 -1.2011241 -0.46167302 -0.21425873 0.29772124 0.15255277 0.010547683 0.4717709 -0.44518963 0.4698418 -0.3758176 -0.60748047 0.34529445 0.41082186 0.16315483 -1.2333378
bem -1.1223963 -0.15560713 -0.35602254 0.48543936 0.6411217 -0.6876142 -0.3396691 1.049592 -0.14242312 0.8498419 -1.4113718 0.0595064 0.271799 1.14309 1.0523783 -0.24126412 0.1373133 -1.1524905 1.2190969 -0.38185737 -0.681231 0.4130934 0.23930779 -0.42219365 0.24332021 -1.3623186 -1.1630634 -1.2515892 -0.6175026 -1.0224835 1.0635352 0.2983268 -1.1533622 -1.0670917 0.26079637 0.95765007 -1.2056004 -0.047721583 0.76612484 -0.6280458 -0.13670784 0.6520822 -0.676878 0.6759825 0.9290125 1.0087781 0.16106078 0.15987769 1.6248621 0.31408247 0.5002 -0.22479859 0.8954762 -0.04795233 0.047840305 0.33636305 0.45922768 0.57007957 -0.30766922 0.07339778 -0.8751782 -0.119651765 -0.7289108 0.37672406 0.8266027 -0.043053623 -0.46191868 0.5423227 -0.15704212 0.4499883 1.2507108 -0.6090099 0.7021009 0.2957466 -0.17919317 0.15672697 -0.64305943 0.5488395 1.3072848 -0.10859989 -1.1409521 0.5931307 -1.0840529 -0.7444871 0.021294473 -0.36918783 0.6804973 0.9356692 1.3101939 1.0520076 1.4811226 -0.523946 -0.30766898 0.77136725 -0.16133778 0.539801 0.046742078 0.084590904 0.18768367 -0.5112479
das -0.34263316 0.70713073 0.14454687 -1.8390685 -1.6688246 0.7741598 -0.84494835 -0.3904907 0.2025595 1.1618191 -1.1361556 -0.21820042 -1.5821606 -0.9369477 -2.281741 0.7494377 0.31196368 -0.17853594 0.8038529 -0.49421188 1.0130618 0.28793117 0.6265636 -0.9186503 -0.111479655 0.14365967 -1.5557295 -1.5759658 -0.19284338 1.1250899 -0.5181418 1.6587957 1.0206152 -0.62285036 -0.4480077 0.591607 -1.235512 -1.3302494 -0.14692464 -2.3301797 -2.261721 -1.6400659 0.9486624 1.1659434 -1.1100211 -1.0938565 0.8567606 -2.3796508 -1.1609718 0.50509024 0.34051734 0.2450742 -1.298545 2.044143 0.20862217 -1.990561 1.0935557 -0.18436812 -2.3994064 0.9616689 2.0267415 1.2053717 -1.1478038 0.76140827 1.0009596 0.93827325 1.4741492 -1.5020046 -1.0742797 0.86783576 -1.6325569 -0.021405796 -0.75995463 -1.7243247 0.3957797 -1.271144 0.36840338 -1.0609785 -0.95392233 0.40231338 0.2884952 -0.6901668 0.33685085 0.35223418 -0.83230776 0.3010755 0.08342847 1.5991716 -0.031556766 1.35099 -1.2347195 -0.28065047 0.049299028 1.0543237 1.8068033 -1.6737843 -1.4713863 0.4749324 0.7598647 0.92379904
cabeça -1.0914477 0.5899826 0.12500335 -0.3575961 1.2718647 -0.28080857 -0.8286382 -0.19557227 -1.284507 -0.06549314 -0.4568804 -0.15982667 0.17963387 1.3627281 1.2049447 -1.3315662 0.7009531 -0.48637196 -1.1350994 -0.24391624 0.32472053 -1.6039563 0.90306216 -0.553335 -0.71367896 -1.3846695 0.8662736 0.97776884 -1.1759096 -1.3418299 0.947327 0.25042552 0.5916139 0.5686228 -0.5679848 0.19148596 1.1143191 -1.0096295 -1.0866239 0.4175543 0.5121131 1.3859758 -0.44557616 -0.38751835 -0.24112034 -0.21052375 -0.03998333 0.82704765 -1.0720625 -0.5331967 -0.24976528 -0.42692587 -0.6803787 -1.1294392 0.5031715 -0.024643047 -0.6771658 -0.17907074 0.5341557 -1.4253464 1.4730582 -0.35693228 0.64629686 -0.8211882 -0.26895672 -1.7142421 0.37425 -0.5356846 -1.3734462 0.8985868 -1.7218645 1.3186612 1.0051676 1.1544062 1.2768924 0.49074474 0.34706774 -1.1506405 -1.2519091 -0.34249324 0.7854525 -0.6350295 -0.09485553 2.299622 -1.5850822 -1.4726344 0.3852132 -0.0986534 0.36320823 0.5572055 -0.39776242 1.1572773 -2.360857 1.7860103 0.9946171 0.9823834 -0.5406113 -0.5672644 -0.1682086 -0.37139148
olhos -0.462536 -0.8394996 -0.5460841 0.052213393 -0.55978185 0.30499187 -0.75010884 -0.017980624 1.0310581 0.38629845 0.020599179 -0.046428934 -0.72379035 1.3193343 0.7515984 -1.542513 0.30969384 -1.773963 -1.4008682 1.6240591 -0.8927225 -1.5404313 2.0841086 -1.2859983 -1.0829068 -2.185177 0.67951345 -0.3478954 0.88281494 -0.49346516 -0.87810457 0.513256 -0.27500525 -0.5877415 -0.990725 1.1236846 -0.54173195 -1.4075437 -1.2621356 0.25739995 0.61083114 1.5824527 -0.9425307 -1.3088702 1.7855372 0.19369861 0.056496713 0.55474657 -0.2842858 -0.08785304 1.7482811 -0.74077976 -0.99925995 -1.2530962 -0.9705412 -1.5869201 -0.45226705 -0.57946074 1.112378 -0.20176424 1.9659584 -0.6415942 0.37156513 -2.0350718 0.060035903 -0.22494848 1.2730316 1.0201048 -1.3822944 0.9533971 0.6729071 -0.68507016 -0.60213953 0.6442145 0.8129272 0.870224 0.87422407 -0.6574983 0.9244861 -0.5289997 -0.7019813 0.86240804 -1.1643282 0.6538722 -0.35131478 -2.4121985 1.3706895 0.5336105 -0.24129307 2.4498649 1.2561119 0.24142416 -2.5439389 -0.028687809 1.2763553 0.952988 0.29535866 -0.52927595 0.13474852 -0.43705344
isso -0.7385818 0.064115845 -0.80185306 0.7621476 -0.1323674 -1.2099116 0.21134815 0.74052423 -0.8915139 -0.70828116 0.15812892 0.4617194 1.3130698 1.0901319 1.1450619 0.737311 0.1360188 -0.18369442 0.046092592 -0.08824865 0.6819428 -0.43014124 0.22464497 0.3232436 0.01836957 0.15554908 -0.8446235 0.20771092 0.0048228693 -1.0637895 0.6591122 1.2372779 -0.48790613 -0.56881946 -0.009337207 2.129122 0.618025 0.8221321 -0.7393496 -0.11223889 0.37106663 -0.9318876 -1.2985026 -0.42544746 -0.6684823 -0.2666882 -0.43291923 -0.7402771 0.24936366 -0.17200208 -0.5641972 -1.3609703 1.1390063 0.20375092 0.31798086 0.4687536 -0.39460918 0.97102916 -0.3621015 0.45871872 -0.10503037 -0.81574756 0.28989804 -0.32256883 -0.5042735 0.42033473 0.1568099 -0.44491538 -0.4348 1.0943061 -0.46486044 -1.4009365 -0.079644114 1.1516674 0.29821518 -0.16829568 -1.3263516 -0.49386102 -0.28525972 1.2020916 -0.036737736 0.1872311 -1.4736853 0.29996946 -0.9928647 -0.9338503 0.14102799 -0.26992646 1.1263336 -0.041126646 0.9714116 0.24144468 0.5168085 0.19030346 0.4072792 0.013280588 0.51054436 -0.27415326 0.4248492 -1.3098853
ter 1.1281154 0.23466344 0.7452786 0.23426081 1.1535048 -0.80994606 -1.7118537 -0.25399864 -1.4008043 -1.2516236 -0.13754365 0.22700457 -0.6942805 1.7403078 1.5281464 0.5444689 -0.7803032 0.7100862 0.69420266 -0.35997808 3.2254093 0.5563172 1.7185805 -1.0394561 -1.2783037 0.28320426 -1.3505033 -0.3773362 0.47236133 0.7094928 -1.4203544 0.56527525 0.75560623 -0.73422784 1.2999532 2.5258493 -1.4964353 1.9384754 1.2052356 0.03846515 1.0047363 -0.022632651 1.8170165 0.4536472 0.686852 -0.66841435 -0.5127176 1.3470243 -0.0908802 -1.0291629 -0.37401575 1.3975786 -0.38054094 1.0314062 0.45364815 0.6223076 0.22906072 -0.26399335 1.0034077 -0.22257103 0.7352496 1.8797182 -1.5201086 0.22527301 -2.060807 2.0551608 -0.6952256 0.92231005 1.196346 1.1137736 -0.875469 -1.5568177 0.5126964 -0.6765957 1.8034055 -0.23185453 -0.89704794 1.3505797 0.352013 -1.2860776 -1.2824277 0.18845566 -2.2277822 2.2481232 0.7800368 1.594406 -0.47158474 0.95390344 0.9178554 -1.243407 1.3286664 -1.7161196 -1.1332458 -1.0825167 -0.02569015 0.7068259 -0.81297237 0.13359812 -0.4780011 0.3558456
até 0.72191375 -0.4070747 0.079752505 0.77289766 -0.047230974 1.1035867 0.7072191 -0.12130682 -0.49253532 0.02297316 -0.2653899 0.7529574 -0.83727825 -0.19313487 -0.9998929 0.7865803 0.13903663 0.12898521 -0.037537932 -0.46055055 -0.16331989 0.91682404 1.0184026 -0.15869315 0.5512404 0.14602894 0.5283744 -0.16725583 -0.19421273 0.4953484 0.2069781 -0.63998187 0.9371013 0.054207396 0.1325196 -0.5278244 -0.43332833 -1.0696858 1.1694347 -0.78320974 -0.66323453 -0.41724494 -0.33755803 0.014170033 1.1481146 0.44117224 -0.572234 -0.639613 -0.3673232 -0.47400606 0.6786861 0.21189333 -1.0649421 -0.4505839 0.60853815 0.23097515 0.04057172 0.022719763 -0.24661398 0.16343999 -0.6319603 -0.17458202 -0.14976028 -0.11263277 -0.09586616 -0.021799212 0.07180224 -0.10888696 -0.38484555 0.8811489 -0.857895 0.94387984 -0.13266833 -0.59148896 0.15930043 -0.790758 0.61845434 -0.7381217 0.005108711 -0.27508155 0.28617808 -0.12718327 0.6074466 0.56418294 0.1948897 -0.19035299 -0.24971756 -0.22775045 0.10586036 0.320605 0.45646545 0.014249568 -0.043338396 -0.19674064 -0.05615617 0.026417831 1.0327659 0.25253835 0.6093686 0.6284897
tinha 0.46168137 -0.4633225 0.11285514 0.17820592 0.6882558 0.42074487 -1.345043 -0.19478427 -0.17954405 -0.0049782074 0.72927874 -0.54981905 -0.72891265 0.5629733 -0.88975126 -0.19712454 1.4561696 0.32115206 0.07616854 0.65812314 1.8751425 0.70787066 0.53420264 -1.8427526 -0.2669213 -0.01074795 -1.2475234 0.10228907 0.75849086 -0.098803684 -0.9494773 -0.4017401 0.7023485 -0.36371785 0.4430282 0.15235396 -0.50936383 -0.47602865 0.6610939 -0.76622635 0.5792225 0.46780822 0.42424357 0.42863882 -0.11719394 -0.5640309 -0.34438697 1.2599015 0.09643428 -0.9777531 -0.28606346 0.22545375 1.3923429 0.45522872 1.0416895 0.9365579 -0.6621748 -0.5221432 0.6043774 -0.2948231 0.45796743 0.48553208 -0.14705344 -0.7746967 -0.11407416 1.1602612 -0.26640433 1.1706307 -0.40580806 0.58728904 0.5036509 0.095242694 0.5455167 -1.4985973 0.26077807 0.6350714 0.559357 0.71096694 -0.37711802 -1.2853754 -0.8246962 0.10726923 -0.13978735 1.7333289 -0.16621977 0.29489353 -0.7927613 -0.21131466 -0.057414442 0.3995678 0.5025199 -0.30028895 0.018199373 -0.95229554 0.35662603 0.6436602 -0.81964165 1.5044227 0.93914163 0.29433358
dumbledore -0.46455258 1.3452989 -0.5043019 1.4062275 0.092567086 -0.6866168 0.08868183 1.4969817 0.6376868 -1.194178 0.18123722 -0.17389235 0.43961686 -0.008359197 1.2837152 -0.14964649 0.24643439 -0.5772205 0.097412445 -0.35746017 0.41900703 0.17157844 -0.1477935 0.9878365 -0.16823232 -0.16212475 0.8397306 -0.038826194 0.41520664 -0.18114755 -0.045084123 0.42477557 -0.53957295 -0.53932136 0.30381078 1.5240027 1.1567869 1.2744957 -0.962203 0.56259936 0.7099181 0.77541876 -0.8046423 -1.3544484 -0.5459407 -0.26372546 -0.004074015 0.2005778 0.26016966 -0.51519084 0.38739 -1.4081165 -0.9960948 0.81463826 -0.41994375 0.44369218 -1.099716 0.090581216 1.2963505 -0.1567641 0.6661015 -0.012283132 0.18897097 -0.49594116 0.43083435 -0.40268016 -0.07297522 0.94064045 -0.61002046 0.026871616 0.26573923 -0.3162871 0.23721863 0.040576957 0.2628427 0.35480848 -0.19863687 -0.6581226 0.017030163 0.1909269 -0.8208377 -0.5277184 -0.4016782 -0.009979108 -1.7334262 -0.8271392 -0.15059745 0.9155265 1.9836415 -0.6404976 0.7782674 0.30057037 0.19760816 0.47833046 1.3866669 -0.014076552 1.0713133 0.15793368 -0.34796903 -0.5123247
vez -0.7278596 1.7435957 -0.487587 -0.4452229 -0.2275857 -2.2122293 -0.7497392 -0.0116794035 -2.6064951 -0.60539323 0.35835218 -2.1340911 1.193375 0.7425287 0.5641746 -1.5491699 0.013874272 0.15359277 2.4110944 0.9121125 1.8975677 -0.64850396 3.2786999 -1.326644 -1.8720936 2.0397637 0.30633372 -1.9492745 -0.851343 1.4211107 0.3631361 -0.2053886 0.6804342 1.1960537 0.83268696 -2.561616 -0.37375018 1.6804188 -0.15283872 -0.94388926 1.4771563 1.0899979 1.3242869 -0.07014278 -1.4951272 -0.1659372 0.54682815 -2.1471145 1.3438188 -1.6609826 -1.8403513 -0.40254253 0.16131307 -1.707524 1.6177429 -1.8269073 1.0107143 -0.8850346 -1.1043265 1.4480478 0.08211243 0.17832756 1.3921534 1.1031216 0.38373888 1.4034945 -0.73191136 -1.3391058 -1.9140201 0.32417554 -0.29222783 0.005552436 1.778925 -0.77912265 0.5243547 0.8423289 0.41054806 0.044570215 1.0340428 -1.4375157 -0.5883933 -0.03501321 -0.379456 -1.238987 -1.791089 -1.6818104 0.26983547 1.5758615 1.3431151 -0.84208053 -0.55298805 0.5683692 -1.4835219 -2.0029569 0.36174133 -1.2698747 -0.7017027 -0.45779255 1.1496831 -0.04961124
perguntou 0.42701918 -0.8467716 -0.1357319 1.0674322 0.65997124 -0.9289346 0.28134713 1.3335491 -0.3636742 -0.7885072 -0.8643441 0.24999079 0.8986433 -0.07383787 1.9458627 0.3710007 0.30639789 1.7997254 0.37636226 -0.048668377 0.02773143 -0.5905618 -0.13867477 -0.19893068 0.6304245 0.60425913 -0.5691871 0.04656839 -0.6378759 0.15904808 1.1309398 -0.3444164 -1.6567267 -1.8105927 -0.19224162 1.1311564 -0.13735066 -0.7428422 -1.1076064 0.11143287 -0.30801982 -1.0758934 -0.6967719 0.055668484 1.3275387 -0.202365 -0.60837156 -1.7248906 0.57254326 -1.1473883 2.0974422 0.3437189 1.4369687 -0.43165866 0.9054096 -1.2614665 0.7268389 0.40655583 -0.67199594 0.7067012 -1.2932876 -1.0081029 0.1575898 0.031181742 -0.089199446 0.29522106 0.9750149 -0.92624104 -1.5218548 -0.3654706 -1.1587019 0.7160784 -0.737765 0.63909245 1.4823388 0.5836682 1.1825908 1.8518529 -0.69863063 0.37548557 0.10365346 0.4199513 0.85053164 0.94004357 -0.86540747 -0.77843004 0.3574374 -0.9999778 -0.42598113 -0.17088209 1.0553805 0.5397309 0.046656746 -0.049990155 0.5397597 0.665609 0.7960329 -0.5459221 -0.53658926 0.11162173
sem -1.1376748 1.3695103 -0.07165015 -0.8436731 0.8740879 0.2529537 1.414703 -0.13864785 -1.6994832 -0.9357985 0.0722124 -0.14598449 -0.14603919 1.4331175 -0.21179552 -1.1096317 0.8035677 0.6828401 -0.48920915 0.08403441 0.5096909 -0.10809105 -0.60872674 0.6820999 0.11058788 -0.8120797 0.9959995 -0.25213078 0.6152376 -0.9159018 -0.24000773 0.13106917 0.63537866 0.6397515 0.7794687 -0.45816675 0.772601 -0.58155984 0.9024253 -0.7786663 -0.16039799 0.8097157 1.0632124 1.1401874 -0.75448716 0.13227154 -1.1459905 0.83816755 -0.6535563 -0.50978976 -1.9635614 -1.5465304 -0.510443 -0.9056014 0.024137491 1.9206468 -0.69175774 0.73948234 0.3123628 0.34157628 -0.056940135 -0.17137982 -0.5403268 -0.15377074 -0.47978476 -0.07394002 -0.17444031 1.0211227 -0.45759305 0.8126862 -0.3459804 -0.22205909 1.3137157 -0.35189596 0.66337043 0.09014776 0.24413778 -1.253108 -0.8122101 -0.42579734 0.787538 -1.2120469 -0.86188555 0.97757703 0.62331456 0.971504 -0.6624095 -0.7018446 -0.07760713 0.0991736 0.28556693 -0.3578943 0.057665758 0.19144747 0.5714886 0.76770556 0.7145454 -0.62715155 1.9978989 -1.6098188
vai 1.3147682 -0.48603654 -0.17770529 0.8372049 1.055778 -0.088172086 1.599253 1.3681211 0.07946075 -1.4247129 1.013562 -0.38051745 0.49989656 0.36117914 0.3648135 1.3106576 0.5770998 1.8858926 0.4399014 -0.4342368 0.27154422 1.0114747 0.5174455 -0.55062085 0.13025145 0.4968267 -1.3987815 -0.9901539 -0.8951913 0.04970281 0.45457178 0.292394 -0.6160247 -0.6390744 -0.8102368 -0.32367274 0.13875061 0.27061766 1.2558967 -0.8146951 -0.6179957 -1.031729 -0.23441045 -0.020034736 0.26672778 1.3480638 -0.46654722 -0.39449856 1.6967655 -0.5010645 0.59613097 0.15707159 1.3203086 -1.4452889 -0.019278709 0.7410394 -1.1897734 0.74601036 -0.49916357 0.677797 -0.72981 0.6931693 -0.005255195 0.6050215 -0.13850518 0.80811375 -1.5252831 0.13502704 -0.83658606 -0.0134197995 -0.78409827 -0.227525 1.8010714 -0.61728406 0.7804129 -0.44264856 -1.2080909 0.73208445 -1.1811919 -0.095996544 -0.3078167 -1.2619585 -1.8612636 0.40453637 -0.2821039 1.2633932 0.38320082 -1.2464375 0.6529587 -1.3436254 1.1728275 0.25655997 1.9461987 -0.46113598 0.3768402 1.1178565 1.37348 0.8514059 0.9209983 -1.5428581
então -0.19609824 0.5650743 -0.14202365 0.41636223 -0.22263534 -0.05608159 0.45032164 0.29379314 -0.2638367 -0.2696166 -0.49157962 -0.31936154 0.19499288 0.4943631 0.53504276 -0.60163724 -0.03970667 -0.2976038 -0.16796902 -0.48596737 -0.21262641 0.5575117 0.10029108 0.78018874 -0.27616414 -0.07449471 0.26430115 0.19463699 -0.44129387 -0.23052019 0.2781414 0.013129517 0.21837118 -0.64401746 -0.42278865 0.8773781 0.4966978 0.24768828 -0.44439253 0.6557433 0.1481198 0.71735215 -0.1720746 -0.3750764 0.055625353 0.31708565 -0.2572329 -0.3225992 0.30656245 -0.24410623 0.0023852396 -0.55222064 -0.4825469 -0.31389078 -0.14484416 -0.9488244 0.036421087 0.09674616 -0.026913447 0.2893073 0.16903643 -0.27357832 -0.05701593 0.054093074 -0.35276744 -0.33567306 0.6729598 -0.0037956424 -0.56185704 0.26572317 0.06355611 -0.4709466 0.24887739 0.4699911 0.5104268 0.15041271 -0.20117429 0.26281047 -0.12912299 -0.061050646 -0.36329356 -0.38283074 -0.56023943 -0.1897634 -0.28687975 -0.3827346 0.30497134 0.05620067 0.4508708 -0.2953544 0.48751816 0.21955116 0.20575471 -0.103044756 0.21800347 0.039423183 -0.038748346 -0.4410403 0.08943602 -0.7958895
ser 0.62476164 -0.40372118 0.37320203 1.0445247 0.84789103 -1.0180092 -1.2406802 -0.054444157 -0.86767536 -0.31406683 -0.6172915 0.2760676 0.023082633 1.636954 1.0627675 0.88429767 -0.56211376 0.0044489964 1.3867257 -0.59049743 2.3700233 0.34350163 1.3571528 -1.3121191 -0.49887905 0.58456075 -0.9864799 0.35592583 -0.2345107 0.48225543 -0.5063479 0.60385 0.33230805 0.02592342 1.0522212 1.9102328 -0.4951074 0.808068 0.11215541 0.020874659 1.0057973 -0.9444722 1.4072505 -0.46458468 0.22542265 0.37548694 -0.6527418 0.21797718 -0.006909656 -0.45880917 0.47473195 0.73048997 -0.07062947 0.7503638 0.45440733 1.2801806 -0.4401331 -0.1103157 0.14822584 -0.40005982 0.6475165 0.7726289 -0.64668083 0.098021306 -0.11952421 1.1181467 -1.1548688 0.6168233 1.025482 1.500775 -0.9113577 -1.0022972 0.79439723 -0.6131509 1.4963489 0.03703006 -1.2153984 0.4871869 0.9222613 -0.47858888 -1.4969921 0.14627545 -1.8710663 1.3501276 -0.35394695 0.15065373 0.009102113 0.87978494 1.2552168 -0.4593551 1.0968417 -0.73793066 -1.472818 0.2396652 -0.058654014 0.34345543 0.22257327 0.78060913 -0.5555144 0.40971556
lhe 0.27092925 0.7972673 0.55948883 0.15556893 -0.11362039 -0.20838717 0.69604635 0.100774124 0.18082379 -0.68684006 -0.36154735 -0.14032477 0.47299883 -0.34043807 0.23471393 -1.041643 -0.11199153 -0.6761516 0.43400887 -0.43589267 1.7748796 1.1834083 -0.52661437 -0.19196211 -0.4913564 0.93256927 0.12186484 0.98795754 0.022530379 -0.04666668 -0.15396868 0.46517068 0.22745512 0.31721047 0.23072077 1.382498 1.0398816 1.238083 -0.70846385 0.7606208 0.64901996 0.76773816 -0.05812429 -1.4760374 -1.0449251 -1.3316321 -0.70820314 1.8943281 -0.042572945 -0.1934509 -0.27415627 -0.47926936 -0.20308629 -0.16359203 -0.6630136 0.26682988 -0.6109047 -0.19248396 0.92101264 0.6697699 0.29669374 0.18598202 0.28770825 -0.7230407 -0.22107984 0.058211766 0.036210038 1.2317368 -0.06974195 0.2018049 0.028081601 0.027991418 0.40680036 -0.1967396 0.6586691 0.020541718 -0.47394404 -0.3175148 -0.13375625 -0.25404933 -1.0977947 -1.0788146 -1.4172188 1.0429598 0.6186294 -0.23167264 -0.26232386 0.8919139 0.39152968 -0.5267454 0.6898232 0.1874358 0.1990266 -0.25973073 0.17320621 0.586718 0.6773818 0.2936643 -0.1025122 -0.9512359
só 0.23323686 0.22569859 0.41691613 0.37670577 0.27041858 -0.434226 0.46181983 0.91399074 -0.17570959 0.0031864222 -0.87197566 -0.7472176 0.8228989 0.69574547 0.12502478 0.012475609 -0.33901218 0.31453684 0.06993468 -0.2985703 0.94875777 0.40882868 -0.32001293 -0.3437353 -0.12993969 0.9203397 -0.75026083 -0.38649213 -0.023344025 -0.595445 0.3906615 0.7870369 0.17440267 0.007835261 -0.20777443 0.12327055 0.2630295 0.24374531 0.33302644 0.5422026 1.2451953 -0.27549288 -0.39880413 -0.3452822 0.121385396 0.16039826 0.4542079 -0.7384411 0.39026505 -0.5543194 -0.029271279 -0.6189255 1.0158769 -0.022004055 0.36936817 -0.3635154 -0.2300218 0.3443508 -0.71273 0.41500992 -0.41830948 0.32412294 -0.79620844 -0.30407983 0.39084348 0.60993826 0.13697325 0.51201785 -0.42636105 1.1230258 -0.59939784 -0.5639114 0.35187826 -0.0094744945 0.68129426 4.179995e-06 -0.44324502 -0.30756786 -0.34303272 0.32253364 -0.9558372 -0.5675735 -1.1352379 0.18242595 0.43996835 -0.111357145 0.3015196 0.3194652 0.37847507 -0.5941908 0.61825716 -0.46171454 0.52510035 0.26280499 0.23365438 -0.20964268 0.26947618 0.09744743 -0.0724867 -0.43347967
porta 0.03548325 1.3900089 -0.186583 0.10832373 0.26306245 -0.38783616 -0.59851664 -1.296571 -2.638015 -0.38407257 -0.12546302 -0.8068873 -1.0608209 1.0677104 -0.32807744 -1.0683287 0.43599978 -1.4663688 0.7287009 0.7859668 -1.279789 0.04089926 2.631418 -0.9191336 -1.126781 -0.69294584 2.1450367 -1.6148231 -1.8349621 -0.3430404 1.0723796 -1.377583 1.3149222 0.39587697 -0.77529067 -0.2382527 -0.6890783 -0.8556549 -0.902933 0.5777663 -0.20372178 0.7314767 -0.34240448 0.011372398 -0.42808956 -0.055755544 -0.66206944 -1.4474362 -0.013431756 -0.35322952 -1.0943377 -0.24129279 -1.7008797 -0.020536073 -0.7423201 -0.8302001 -0.09020185 -1.0083116 -0.22945929 -0.43228894 1.2849296 -0.79847974 -0.8425001 -0.7011521 -0.02585115 -1.1270121 0.80682915 -2.0101962 -1.698349 -0.054714184 -0.97070533 1.4165008 0.46304402 1.2060635 0.48867935 -0.15318488 0.32165128 -0.4276432 -0.62893605 0.6874386 -0.269309 -0.5602115 -0.43939376 0.57184285 -1.4673836 -1.8732193 -0.52903825 1.1386065 1.2132761 0.3156777 -0.9653131 1.0312893 -1.2159188 -0.6839542 -1.0990628 0.015082978 -0.4425323 0.096964866 1.0765293 -0.1504475
lo 0.50611717 0.3488397 -0.108535774 0.7200813 0.42347035 -2.0485163 0.27125296 0.36052376 -1.5257989 -1.4704095 -0.9091222 -1.1483552 0.89693135 1.256267 0.22303809 -0.13542685 0.0026118455 -0.56093943 0.5452568 0.00877282 0.8413758 0.1291756 0.27052718 -1.1581608 0.48958394 -0.19854976 -0.63817513 0.06413148 -1.7142133 0.42687106 0.50287926 0.61324054 -0.45767975 -0.42043078 0.49734145 0.9752067 0.16050266 0.40019283 -0.29277125 0.30405408 1.0907476 -0.915433 1.4054213 -0.8005674 -0.5008849 -0.8885625 -0.051254373 -0.25060993 -0.5554886 0.28885677 -0.91081434 -0.82353187 -0.23407368 -0.18093833 -0.61227274 1.0332477 0.115754604 -0.3064116 -0.75605613 1.6684685 0.9893196 0.06824072 -0.18792136 0.139134 -0.2619632 0.6711001 -1.421984 0.12869573 0.3627593 -0.6206959 -1.287695 -0.58056194 0.8549948 0.23433393 0.7288059 -0.9698989 -1.1230592 -0.55811757 0.72033685 -0.06614507 -0.021893121 0.16779958 -1.5764065 0.459991 -0.19736512 -0.05881851 0.3210956 0.3962892 1.0160389 -1.0481486 -0.66769075 -0.7042955 -0.14126104 0.6215471 -0.8942207 0.06554014 0.18066715 -0.47499672 -0.63837355 -1.4844848
agora -0.16769797 0.015509081 0.15206058 0.17640641 -0.25363466 -0.03058704 0.023804978 0.37303743 -0.35932514 -0.33840033 -0.3645856 -0.073297426 0.3461028 0.2220726 0.15122889 0.61877394 -0.22044592 -0.07361587 0.3403806 -0.35831568 -0.11035641 0.15309149 -0.06625602 0.13642202 -0.33784184 0.22674392 -0.7765572 -0.32114878 -0.34981942 0.20639662 0.34442115 0.24117158 0.027605573 -0.02998366 -0.12525691 0.3684472 0.036767058 -0.10127758 0.23475228 -0.48594326 -0.18703443 -0.6132077 0.038135983 0.03784993 0.4530967 0.07745223 0.06664783 -0.68023497 0.13430616 -0.019236557 -0.056883775 -0.68165225 0.107094 -0.15817781 -0.6579199 0.16444193 0.9289857 0.49816656 -0.9553077 0.49793965 0.36013234 0.2923908 0.4849854 0.046199158 -0.43158183 0.27855256 0.1226321 -0.01757401 0.009744134 0.3346607 0.016148008 -0.086911015 0.102477826 0.10114466 0.8090088 0.118569575 -0.8633223 -0.54700667 -0.1559477 0.21828339 0.17837991 0.55077547 -0.6809554 -0.07108398 -0.22251967 -0.363295 0.061897397 0.548118 0.3453058 0.036709394 0.5967343 0.029015947 0.3622596 0.10542861 0.2811757 -0.4275427 0.21846065 -0.34817854 0.0057416633 -0.2768734
snape 0.1113404 1.1754582 -0.5306834 1.2539235 -0.14013568 -0.57354856 -0.24917085 0.46750346 -0.7101834 -0.63416475 -0.3587583 -0.46457252 -0.029180994 0.50544244 -0.42607328 -0.4167041 -0.04822737 -0.34864128 -0.40014526 -0.6788516 0.29358315 0.41503996 0.19977462 0.38469952 0.009185742 -0.15780288 0.3081046 -0.33185157 -0.70427394 -0.21824782 0.025553614 -0.09721222 0.16148202 -0.96753585 -0.16909039 1.0045534 0.63632596 0.62903416 -0.67421734 0.18197557 0.569931 0.156166 -0.5365642 -0.42192185 -0.80986464 -0.052831527 -0.002283704 -0.25647205 -0.004865386 -0.19367509 -0.40710697 -0.7896632 -0.7710474 0.43063945 0.3109579 0.72855353 -0.64143384 -0.48679546 -0.078502744 0.07136926 0.49076653 -0.18088262 0.23107712 -0.3212056 0.38653237 -0.081596166 -0.46697912 0.69007605 -0.13951185 0.23653035 0.080621146 -0.123132795 0.23929286 -0.047135584 0.13391483 -0.022600029 -0.10938265 -0.88044333 0.5579324 0.18115401 -0.33027196 -0.14064124 -0.6173211 -0.43614784 -1.4475756 -0.8104105 -0.0870344 1.3361061 1.4334263 -0.17394081 -0.64034414 0.0692256 0.7808074 -0.18124853 0.48903877 -0.3619948 0.4315387 -0.20782404 0.24248749 -0.07458613
já 0.50073755 -0.49988988 -0.091806434 -0.11343042 -0.40528598 0.090999365 0.27255148 0.44364974 -0.64161587 -0.020113144 -1.2066767 -0.09002526 -0.09699609 0.71395415 -0.3855358 1.1075627 0.40376362 0.27892077 0.33451486 -0.24544047 -0.48812115 0.93711704 -0.31619385 -0.029593488 -0.038458154 0.8827067 -0.88791186 -0.23154472 0.16491506 -0.07836767 -0.2040155 0.14223191 -0.08205367 -0.71122223 0.08092562 1.0276988 0.044842586 -0.36395693 0.69099426 0.13667712 0.2779649 -0.98909897 -0.51936954 0.4545749 1.0322237 0.9003598 -0.2282962 -0.81317586 0.7327232 -0.69451463 0.27378976 -0.31438562 0.99329406 0.21074851 -0.32631597 0.20408146 0.2728723 0.520179 -0.72544634 0.54305655 -0.08724126 0.22241813 -0.6342856 0.26782945 0.56472254 0.87512517 0.10453468 0.20278227 -0.20661892 0.8964092 0.105775915 -0.3446201 0.386969 -0.17129679 0.085713774 0.42938352 -0.79682654 0.0014700975 0.09696486 0.27099487 -0.5657817 -0.082213864 -0.7349673 -0.36640608 0.08731906 -0.366233 0.67592096 0.48217493 0.29801005 -0.010031468 0.39055064 -0.103983715 0.16622368 0.7423532 0.17402992 -0.48809278 0.1812433 0.034757987 0.332826 0.5211806
parecia -0.07862763 0.11081746 0.8377161 -0.980882 0.7412036 0.6748091 0.656192 -0.6052752 -0.2940948 -0.38188648 0.3452892 -0.61370486 -0.24538958 -0.3278664 -1.7679809 0.21072564 0.9645739 -0.15293448 -0.48295912 0.054059498 1.3351029 0.7690049 -0.2991542 -1.4381402 -0.50616384 -0.7711189 -1.1196927 -0.7879211 0.0406321 0.04605998 -0.1962326 -0.8465525 0.5212383 -0.17552474 -1.2087862 -0.72370917 -0.765797 -1.5316893 0.68988293 -1.3262105 0.17986429 0.7673561 0.03141671 0.48495507 -0.43160546 0.3091055 0.61032027 1.2572333 -0.37798136 -0.7053676 0.09318597 0.7540359 2.0342422 -0.7894582 1.0293844 0.6956072 -1.0687993 -0.6896535 0.3855722 -1.3975452 -0.39134333 0.8599029 0.5073852 -1.470856 0.88620895 0.2143115 0.44547743 0.3807932 -0.69379884 -0.03727088 -0.091332525 0.29673353 0.9762209 -0.92189246 -0.12982574 -0.110579886 0.33967918 0.20788316 -0.533871 -0.24951565 -0.73384404 -0.47160456 -0.45155802 0.9692142 0.013307078 0.40513906 -0.34389418 -0.22675192 0.298756 1.2294531 1.0045663 1.5858525 -0.051387627 -0.9983006 0.5472704 0.14284733 -0.1495961 0.8711691 1.6834223 1.1106323
weasley -1.4492062 -1.1994535 -0.4966124 0.83353597 -0.8529239 -0.4907903 -0.29602328 -0.64873594 0.31168136 0.37263188 -0.49012613 0.510585 -0.85575503 -0.7334223 1.4818196 0.40996334 -0.2888781 0.27423504 -1.5404749 -0.63645625 -1.7308626 1.1590501 0.061384473 1.5226516 -0.67532146 1.2042317 0.52821964 1.1810275 -0.94560146 1.0902454 0.31698325 0.43233404 -1.8543789 -0.89201665 -0.11349739 0.12182021 0.62166893 -1.3889694 -0.55590147 0.5706113 -1.087822 -0.91343623 -0.16622682 -0.25012767 1.7184957 1.1625881 -0.15083012 0.48269227 0.40076026 -0.6475786 0.6856479 -0.8013948 -0.2559153 -0.6157708 -2.1731203 -1.2511463 -0.5338315 0.4313739 -1.2369728 0.48936367 0.27540553 -0.4656419 -0.6578765 0.16818997 0.87965757 0.47568104 1.3984557 0.8190531 -0.37128535 0.018590638 1.4370126 1.6139843 0.71770614 1.3985146 0.9388002 1.7893126 -1.515637 0.6467078 0.61927086 -1.039749 -1.1068363 -0.69599277 0.30281085 1.2833012 -0.97000307 -0.18024892 0.35787255 -0.11071816 -0.33380964 0.13855141 2.0960588 1.438262 -1.7123655 0.11288761 0.9201248 -0.079024635 0.32323498 -2.0272477 0.03549908 0.06152663
pelo -0.30975237 1.1848361 0.28867528 0.8690633 -1.0942689 -0.74919665 0.7204042 -0.3430663 -1.1196784 -0.8105664 -0.23518124 1.5017554 -1.6259803 0.39463747 -0.7762486 0.50027096 1.3320464 -0.5926173 -1.180314 -0.7263524 -1.4916909 1.2275265 -0.013904894 0.24123922 -0.12396289 -0.757931 -0.045383062 -1.5022409 -0.20563102 1.6283453 0.32001752 -1.103608 1.4234624 -0.27187133 -0.3022996 -0.106725246 -0.6146245 -1.1475393 0.52757424 -0.53627187 0.1363129 0.57793075 0.7483304 0.8190731 1.5130106 0.21437022 -0.39334026 0.6784046 -1.2071732 0.17484148 -0.21930513 0.6479655 -2.5814407 -0.47299936 0.3327492 0.71566004 0.76203656 0.86205626 0.8081252 -0.19860937 -0.6659815 0.32064652 0.35933584 -0.13783567 -0.29375198 -1.255433 0.48258832 -0.18204294 0.17432345 -0.78096545 0.67290986 0.6244217 -1.2914648 0.24794628 0.050736997 -0.71943265 0.80158997 -0.26373687 0.12010832 -0.5216797 0.5059661 -0.05660536 1.724376 0.40832493 1.5979449 0.61621445 -0.66374415 1.6476383 -0.020626895 0.32309702 -0.5515794 0.11931572 -0.7097121 -0.25026688 -0.08187953 -1.1766633 0.16106993 -0.56192696 1.3255476 1.11346
dois -0.15204649 -0.13413374 0.17447424 -0.16486986 0.24322982 -0.19330911 0.5099501 -0.12928514 0.49712247 0.061886568 -0.49660182 0.46121213 -1.6031798 -0.029699886 0.3630424 -0.39375812 -1.0998033 -0.51107615 -0.21416242 0.57142645 -0.577858 -0.16099216 1.333517 -0.17071709 -1.2031047 0.18961683 0.7063334 -0.35018918 0.43372256 0.9018235 -0.36252895 0.69718254 0.17982961 -0.51574385 -0.92979 0.25218537 -0.2601914 -0.6878849 0.42568395 -0.65107846 -0.90943277 -0.10466713 -0.9403736 -0.18553892 1.1245006 -0.22038427 0.3893331 -1.2317727 0.9544672 -0.042079683 0.12668084 -0.54355145 -0.53536695 0.00025331517 -1.3320096 -1.1748078 0.5892334 -0.20655972 0.5838124 0.65837944 1.1658052 0.15012741 -0.9640886 -0.51853085 -0.35436258 0.83487576 0.31586948 0.6385226 -0.3527066 1.0781345 0.065778814 -0.9988813 -0.752474 0.2285741 0.31540135 0.54525334 -0.15471414 -0.63407034 0.16343638 -0.30995917 0.44053516 0.23189726 -0.79947937 -0.056057774 1.2096364 -0.9060832 0.5737643 -0.09700182 -0.26705587 1.1886687 1.6856521 -0.38034004 -1.0947171 -0.35565665 0.5649231 0.21521506 0.62003523 -0.8949411 0.6724297 -0.719029
fazer -0.0753174 0.23225601 0.42436877 0.063144624 1.3510033 0.080684185 0.09953784 0.965374 -0.8995705 -0.219816 -0.65965515 0.0888193 1.3745592 1.0199826 0.11982299 0.044635862 0.04737951 -0.08676184 0.9320916 -0.90426666 2.056158 0.1518019 -0.18014073 -0.56987226 -0.16192281 0.7821841 -0.43396643 0.9353229 -0.91327316 -1.0022528 -0.042020857 0.995497 0.16790105 0.13423066 1.2236769 1.1685178 0.59250337 0.5396804 -0.12236289 -0.17615747 0.6116149 -0.5309677 0.8320605 -0.69490975 -0.40057254 -0.6859749 0.2303041 0.6444948 -0.7267365 -0.81830186 -0.50332737 -0.36434752 0.030266935 -0.17386559 0.5256123 0.74162984 0.3063077 -0.16240276 -0.779857 0.031384505 0.25612995 0.52608234 -0.13750193 -0.17893994 -0.3999211 0.97165465 -0.022787916 0.5065854 0.25264272 0.5365903 -1.060374 -0.7515856 0.6277821 0.1448145 1.783785 -0.052490912 -1.787309 0.07653286 -0.277078 -0.41951886 -0.44998282 0.19160895 -1.0217859 1.4034392 0.11335943 0.8444189 0.7759229 0.54731077 1.1449682 -0.09594643 1.1108693 -0.19240762 -0.1847061 0.45396084 0.45333788 0.41194668 -0.42608184 -0.43102595 0.22560108 -0.69905573
potter -0.58695734 -0.14327405 -0.22106001 0.91145563 0.13020425 -1.7392849 -0.021452304 -0.014121771 0.20177823 -0.62616724 0.2800463 -0.59810704 1.1254627 0.33402053 2.709033 0.7193985 0.46265763 1.2092165 -0.17626585 0.075235724 0.43528718 0.10812052 0.11559767 0.8124197 -0.046632644 0.48745158 0.033354986 0.10477209 0.5887286 0.08759077 0.24117208 0.3155051 -1.8587985 -0.6818386 -0.6339881 1.4022682 -0.060622726 0.31346244 -0.15587632 0.82616 0.91469276 -0.04029095 0.016555073 -0.31746876 1.2121116 0.6441602 -0.18310007 0.05973283 0.57547146 -0.30817166 0.40022042 -0.41883248 0.6209676 -1.0166188 -0.68375814 0.17622064 -0.1260996 1.1290216 -0.6907919 1.3364837 -0.3691422 -0.13757022 -0.3296202 1.3270555 0.2962651 0.7892125 -0.11504053 0.8380349 -0.82166976 1.024147 -0.24295813 -0.66954845 0.75079006 0.8323704 0.1305482 0.48027194 -1.0311031 0.29747885 -0.16087276 -0.81324905 -1.2494363 -0.96200335 -1.4444757 0.94026726 -0.86702955 1.0020589 0.88783234 -0.3431456 0.27544478 -0.5592736 1.547893 -0.5826953 -1.2980489 1.0927424 0.693885 0.1857808 0.95682025 -0.6872591 -0.983871 -0.042844873
vocês 0.5094127 0.25636768 -0.014930198 0.7012057 1.3350317 -1.7627852 1.1923357 1.4041848 0.3415499 -0.96639544 -1.4870292 0.2017389 -1.3290085 -0.33571684 0.26934072 0.08026235 -1.7915922 -0.118646614 0.5279479 -0.42253175 -0.13375086 1.0679845 0.25993752 -0.18549208 -0.66810465 0.95956653 -0.9952966 -0.27137142 -0.19897135 1.0361714 -0.6275692 0.942308 -1.1498026 -1.4070239 -0.5833947 0.98141557 0.573646 0.92953926 -0.54642123 -0.34845886 -1.1133218 -1.3149464 -0.89177155 -0.40547958 0.37735718 -0.779182 1.9322381 -1.8749369 1.7440529 1.2804372 -0.04900432 -0.65817213 0.6413385 0.3916325 -0.68402195 0.7843619 0.85729325 -0.2518094 0.16791591 0.8598574 -0.091925286 0.27262843 0.07733191 0.033853024 -1.1347913 0.8402729 -1.0236046 0.74271834 -0.0689943 0.68222773 -0.22410217 -0.7041224 -0.24632491 0.12859207 0.40387145 1.3336046 -1.4299766 0.48508513 -0.32259145 0.37194264 0.039265133 -0.11402379 -1.8998861 -0.36013636 0.5550331 -1.0557758 0.17785941 1.0630463 0.61775523 -0.28639212 1.3150495 -0.6928993 0.48753095 0.23637557 0.5460805 0.36720225 0.7340733 0.28529024 -0.26338235 -1.5551912
nada -1.070642 0.25965735 0.061995957 -0.19854443 0.03700926 -1.533038 -0.25343418 -0.44606352 -0.38733125 -0.5550744 0.07873575 0.23147649 0.3142866 0.161819 0.17687865 0.28726506 0.90651375 -0.44129863 0.17486635 0.3037797 1.2566552 -0.13067316 1.0540453 -1.3660228 -0.9391196 1.0243692 -0.46058652 -0.47448397 0.13959923 -0.5238098 -1.1719731 -0.08903738 -0.5590742 0.5378238 0.1365511 1.391716 0.62929887 0.8093581 -0.008480985 -0.5041367 1.0316691 -1.310803 -0.05209463 -0.9070084 -0.39525807 -0.10180713 -0.44659784 -0.34443665 -0.2389182 -0.894599 -1.1636492 -0.6008718 0.6074855 -0.057047375 -0.14160056 1.0171049 -0.65980905 -0.14087042 -0.19013916 0.35053638 0.6211003 -0.39859724 0.12558334 -0.6068298 0.47641245 1.143766 -1.0523018 0.6148371 0.22236429 1.9408889 0.5658974 -0.31097642 0.5452694 0.7357325 0.83356273 1.1041337 -0.9315441 -0.70260924 0.46397504 0.57159317 -0.48147857 -0.8503816 -1.219492 0.15851772 0.07234061 -0.8409346 0.4882022 0.74262476 1.0467037 -0.47698995 0.39095268 0.2773637 -0.48415872 -0.3484025 -0.28895757 0.18844342 0.6198076 -0.11614213 0.2629117 0.059964236
voz -0.8880687 0.98566985 -0.09595156 -0.075482614 0.8305228 -1.3091019 -0.44407892 0.80083376 -0.9024078 0.5254186 -1.2024786 -0.9301181 0.12031433 1.5752873 1.983394 -1.6503726 -0.33977813 0.06883367 1.0153967 0.38563675 -0.39736885 -0.23898533 1.5715333 0.9321603 -1.2392102 -0.24208556 0.75176525 0.3393229 -1.0991346 -1.4150152 -0.41140622 -1.2141706 -1.7436131 -0.8047201 -0.25676242 1.456594 1.1640841 1.3739444 -1.3057352 1.2728148 -0.3283668 0.7527542 -1.5011741 -1.4021642 -0.49590257 -0.03919608 -0.2979748 -0.30108303 1.751695 0.44847214 -0.92587113 0.80220383 0.5852204 -1.7292693 0.45439503 -0.23776615 0.12497563 -0.21081676 0.77594423 -0.27286127 0.7297888 -1.2407317 1.321636 -0.009493764 -0.4432252 -1.5071028 -0.4322633 -1.2946218 -1.7518567 0.89187396 0.15069993 0.23316701 0.7443989 0.9177603 0.92150843 1.7249597 0.4028402 1.1521935 -1.1500418 0.7031535 -1.0926225 -0.10246163 -0.83997625 0.52645934 -2.3685172 -1.767624 1.0190688 1.7985023 1.5397669 -0.7456656 0.18436638 1.0839595 -0.20264754 1.2628772 1.1025195 0.8218659 -0.24851345 0.9927152 0.13436367 -0.06376905
lockhart -0.5899784 0.6763614 -0.43401358 0.6260882 -0.45992687 -0.69447315 -0.15767677 0.75410146 0.3459893 -0.23746799 -0.3880075 -0.05498632 -0.29897058 0.5870863 0.6694037 -0.4841834 -0.2191205 -0.29961932 -0.5585036 -0.03511802 -0.8385875 0.57560927 0.19980621 0.7296598 -0.16915826 -0.41791394 1.0822766 -0.22986081 -0.30903426 0.22756116 -0.14321762 -0.525005 -0.29679218 -1.1982224 -0.711219 1.3642232 0.572627 0.46058664 -0.5130874 0.39934358 0.47210035 0.41556868 -1.1193196 -0.90019673 -0.04172604 -0.8281047 -0.0038648185 -0.14168727 0.5185545 0.9605978 -0.4146645 -0.5753269 -1.2236753 0.43739665 -0.27233154 -0.7094581 0.112821944 -0.609597 0.44938308 0.39521846 1.1682456 -0.89684147 0.5909707 -0.52006453 0.7103033 -0.07838051 0.12757671 -0.13358092 -0.51249355 0.6373414 1.2937059 -0.066062056 -0.6851127 -0.23502432 0.313349 0.781437 -0.045034792 -0.57076097 0.16048343 0.78564143 -0.33344188 0.23231784 -0.17111777 -0.5104948 -1.1336105 -1.127664 -0.23391871 1.3516401 1.0022116 0.57141316 0.06524072 0.036888182 0.5885104 0.45105168 0.86433923 0.1056625 -0.008558134 0.041378394 -0.52452457 -0.23123631
depois 0.6471187 0.0040971297 -0.070641756 -0.07451338 -0.014051742 0.43626308 0.3961683 -0.3243925 -0.31492126 -0.08863397 -0.25592813 0.28408852 -0.32261497 0.5075572 -1.000975 0.25988385 -0.55114233 -0.4246362 -0.64335054 -0.7613055 -0.57021314 1.12582 0.5905715 -0.09211512 -1.1802559 -0.10604982 0.49017718 -0.31086776 -0.34273523 -0.12204608 0.40729335 -0.0010536847 0.37823004 0.010925752 0.045011606 -0.298083 0.40869832 -0.46489248 0.680739 -0.29319113 0.37730226 0.16802573 -0.28987813 -0.074953936 1.0429734 -0.06607911 0.3463074 0.17392105 0.46283194 -0.09033325 -0.13236938 0.551511 -0.32815903 -0.07499693 -0.09911148 -0.3721075 0.17956695 -0.04072673 -0.32306388 0.24609362 0.14692414 -0.060459338 -0.47366413 -0.019455623 -0.3487379 0.005164896 0.29445943 -0.6654288 0.06574688 0.49448067 0.20516577 -0.25274462 0.19044885 -0.4788314 -0.17863211 -0.24063584 0.058000304 -0.32443607 0.062437255 -0.79095364 -0.043996576 -0.035507113 -0.5944135 0.5970213 -0.0660019 0.19222413 -0.066164434 0.9752273 -0.049082227 1.1456406 0.7295698 -0.11634777 0.123517685 -0.43212855 0.33023325 -0.90348685 0.11298307 -0.13968796 0.5446864 -0.3497011
dizer 0.28925803 0.37150532 -0.054324303 1.2913753 0.8423704 -0.94414884 0.176867 0.4421211 -0.776441 -0.26174086 -1.648341 -0.14794727 1.0888808 0.01904968 0.7717547 0.36882868 0.31928656 -0.16054708 1.1668944 -0.14052749 0.71005565 0.066933304 0.4757229 -0.8412586 -0.47876638 1.5866599 -0.5996496 0.4663828 -0.57396656 -0.3322503 0.18989205 0.95104104 -0.5976477 -0.2812896 0.28794202 1.4636655 0.30538523 0.49744642 -0.46098202 0.89259166 0.9013931 -0.9856447 0.71677464 -1.3478246 -0.09979546 0.014806038 -0.3733379 -0.5730224 -0.36089134 -1.5084776 0.33141574 -0.5170621 1.2326294 0.092864156 0.3261576 0.8088972 -0.3725412 0.5034042 -0.61660045 0.456211 0.31150654 0.10801616 -0.5502101 0.2885425 0.5888969 0.80979985 2.0584583e-05 0.52594924 -0.2113009 0.21756822 -0.81728905 -1.1910627 0.22083245 0.79822993 1.8771629 0.78874093 -1.4554962 0.16093035 0.8108197 -0.19573262 -1.5762823 -0.4261748 -1.7086171 1.2068723 -0.45109305 -1.273105 1.4350792 0.8482789 1.033672 -1.5277867 1.7209263 -0.110373475 -0.44600287 0.30332717 0.28088602 0.21316509 0.56172407 -0.26936176 -0.031178413 -0.4091514
todos 0.70512646 -0.35406306 -0.15748528 0.48518333 0.6556301 0.4294118 0.42027202 0.7080089 0.04810145 -0.012613261 -0.8184721 0.27740178 -1.3257419 0.6376532 0.017734429 -0.042431973 -0.93788165 -0.58424556 -0.28961405 0.6280727 -0.5789678 -0.11587626 0.7626613 -0.6179064 0.171258 -0.12685673 -0.24486217 -0.31686765 -0.11066641 -0.09461647 -0.071566164 0.3920133 -0.066715814 -0.6717382 -0.048030764 0.174833 0.06940607 -0.6314627 0.03573554 -0.55270165 -0.8340887 -0.45128357 -1.4907674 -0.34260482 0.78010154 -0.10427679 0.6734294 -0.10923401 0.5562227 0.7968351 0.41337433 -1.0239581 0.26306048 0.4699002 -0.34592396 0.21740468 0.23626578 -0.048417255 -0.17230202 0.32009465 0.39949733 0.17391808 -0.7114073 -0.6205594 -0.47224763 0.53156817 0.13452789 0.84049803 0.19873388 1.1903386 0.2958993 0.15816134 0.012943561 0.075812764 0.114784114 0.14588025 -0.49226516 -0.44823453 0.041149925 -0.16166808 0.60687965 0.2916104 -1.2782016 0.13137026 0.25078484 -0.7393933 0.55722153 -0.38057533 -0.037206173 1.0051843 0.87370294 -0.5863877 0.053482074 0.74927783 0.72087425 0.46870306 -0.015816774 -0.034525175 0.3874976 -0.6647717
vamos -0.46826053 0.30716416 0.56724524 -0.31857616 1.265817 -0.7460118 2.0775454 1.2171282 -0.26856995 -0.555191 -0.28473625 0.2767438 0.3544601 0.11980411 1.1004726 -0.21397413 -0.53164893 0.60360277 0.38439292 -0.85659444 0.0018517635 0.8679643 -0.3483815 0.110439345 0.295068 0.3253898 -0.8174148 -1.4736954 -1.3508661 -0.7184545 0.18893687 -0.02429539 -1.0430448 -0.10143357 -0.6942638 -0.26513082 0.03545555 0.42198768 0.48615772 -0.5856442 -1.3863758 -0.3708944 -0.7033332 -0.09226616 0.10620129 0.029837726 0.40404525 0.31518185 0.6851163 0.28715387 -0.5248324 -0.39346427 -0.027978884 -1.3448462 0.19319902 0.17066297 0.6445313 0.68041956 0.3646728 0.40028852 -0.61843 0.37156105 0.12751514 -0.22527324 -0.31178707 0.4364337 -0.5293144 0.09450117 -0.8675392 -0.4962106 -0.94604427 0.14131539 0.8649378 0.32700205 0.9871325 -0.25077748 -1.4566785 0.360916 -1.5923772 0.77979815 0.6595895 -0.29557022 -0.9195411 0.61802703 0.64424133 0.9539246 0.13890536 0.4457414 0.38793617 -0.32741725 1.1747 0.61879736 1.4579576 -0.3619288 0.54649776 1.3026816 1.6319956 0.32051194 1.0463084 -2.0628338
nunca 0.4694415 -0.25378904 0.10443848 0.15661986 0.187897 -0.112621345 0.46217698 0.25755045 -0.5793076 -0.86895347 -0.90084475 -0.2406825 0.65984523 0.6968541 -0.38392782 0.5300388 0.8979413 0.7257373 0.5221862 0.3412726 1.47845 -0.016296368 0.3022104 -0.8111571 0.103113346 0.7946968 -0.51063675 0.15127045 0.026102223 0.55746675 -1.0858808 0.029233966 -0.2526118 -0.41495624 0.61855 1.0998429 0.07807986 0.88960606 0.81269485 0.2447142 0.6709737 -0.7409726 0.13519783 0.082460955 0.06687959 0.8927617 -1.1793668 0.13255653 0.55594087 -1.5272316 0.00957675 -0.102524474 0.9135834 -0.36459875 -0.1325226 0.4769113 -0.7091309 0.26450846 -0.5136453 1.0884167 -0.09844435 0.5460689 -0.52331686 -0.50430363 -0.10682196 0.7180296 -0.8884396 1.2167481 -0.08956847 0.9649005 -0.33452344 -0.2639576 1.0434661 -0.571567 0.5202191 0.3087681 -0.042878423 -0.551436 0.7317466 -0.12574136 -0.9592777 -0.38188934 -1.179016 0.24054009 0.26828596 -0.709599 0.88253456 0.5381211 0.70091695 -0.37854052 0.33649594 0.2188106 -0.18830097 0.5106048 0.5292386 0.18695194 0.7164649 0.03076228 0.38785404 0.757922
havia -0.26541117 0.37674117 0.512115 -0.7657923 -0.47362986 0.058793347 -0.5794818 -0.468281 0.2443029 0.26015714 0.5791722 0.507585 -1.6478933 -0.23658717 -2.9451647 -0.735158 0.63054407 -0.06003527 0.7102838 -0.4173344 1.2117666 0.8536617 1.2944132 -1.7655053 -0.66719306 -0.50636744 -0.5089453 -0.5018929 -0.040664047 0.4680028 -0.3921459 -0.19687833 1.3701335 -0.11771006 -0.1737659 -0.57743335 -1.0953299 -1.2813104 1.411392 -2.086444 -0.78301895 0.27445018 0.52583647 0.26476818 -0.645703 -0.90211993 0.33681032 0.019959144 -0.18417326 -0.4070014 -0.61731714 0.49686205 -0.04235035 0.4007826 0.865357 0.7414016 -0.4322729 -0.53548163 0.2588437 -1.0231067 0.09228675 0.8604073 1.0325463 -0.82000554 -0.12257918 0.28945497 0.19309813 0.30375138 -0.16903895 0.7994597 0.2665958 0.4229602 -0.35585886 -0.70831263 0.38787034 0.14132391 0.22873741 -0.11831277 -1.0098985 -0.5418592 0.22040102 0.0338755 -0.41329286 0.04275675 0.3562084 -0.014518203 -0.17693947 0.5922127 0.2753608 0.5801944 0.06970224 -0.07096333 -0.74572754 -1.0475776 -0.20379439 -0.9215245 -0.24230768 0.8653463 0.70276135 1.525497
quem 0.7856552 0.41552448 -0.4404141 1.0739679 -0.5898105 -1.5690409 -0.5458511 0.67545193 -0.52846116 -0.2580453 -0.27610677 -0.70340127 0.59589034 1.7138495 0.87328607 0.32560837 0.97694427 0.012241361 -0.24839875 -0.5608054 0.0422532 -0.0300671 -0.4834766 0.34242105 0.007403603 1.3641429 -1.5179868 1.1309662 0.075038806 -0.44954753 -0.34483847 1.0574731 -0.2155997 -0.9246166 -0.050812494 1.7235248 1.3857161 0.23694631 -1.1088625 1.5751337 0.6441227 -0.98608273 -0.6512297 -1.157865 -0.141842 0.22989526 -0.6454357 -1.1261226 0.640046 -0.7810808 0.60066175 -0.9659861 0.3745688 0.6744169 0.48424086 -0.08811466 -1.484829 0.062119864 -0.2396907 0.7345899 -0.04140042 -0.2938493 -0.99379814 0.71255845 0.2402372 1.1349502 -0.03341706 -0.29827726 -0.6125145 1.1522156 -1.0938851 -1.274752 0.3751988 -0.043441318 -0.04767559 0.73990095 -0.48399276 0.26785627 0.24015877 0.60073465 -1.330442 -1.0162857 -0.44381887 0.33772385 -0.66166294 -0.45616567 0.5408948 -0.22086847 1.5346322 -1.1164066 -0.11449796 -0.077728845 0.0365942 0.66834456 0.87005574 -0.6904974 -0.13304493 0.38037464 0.29096413 0.196821
alguma 0.6186888 1.2038654 2.0461943 0.094771944 0.42291084 -1.8579023 0.67151845 1.7966318 -1.7014993 0.022334598 -0.56332713 1.1769767 1.5915965 -0.055327523 0.6787995 -0.046384268 -1.3731833 -0.23100626 0.100914516 -1.913005 -0.25759622 0.3027282 -1.6054498 -0.28546172 -0.5524911 0.73084277 -0.1672329 0.60284555 0.3464196 -1.8449771 0.050540578 0.9810162 1.5087095 -0.31394595 -0.0061845747 2.307975 -0.78421926 -0.27937922 -0.31740126 -0.4843611 1.5012656 0.824851 -2.0732453 -1.9360822 -1.1883417 -2.123087 -1.7860233 -0.039466817 0.12986377 -1.033578 -0.47811913 -0.8404806 -0.3541613 -0.26263288 1.3936126 -0.06672123 -2.1193738 0.58218104 1.5660634 -0.9633001 -0.07867979 0.14773433 -0.78015167 -0.40454945 0.9232234 2.1124053 1.6463542 -0.93519974 -0.6063965 0.12002206 -2.2051835 -0.78583956 -0.32147154 -0.29960316 0.6361331 -0.21742699 0.11227986 -0.36180404 -0.73970467 1.619925 1.1312068 0.6528008 -1.1000717 0.542232 1.4052074 0.38249907 0.4825297 -0.024199268 1.7818071 -0.90766954 1.2357743 1.5231168 -0.8855529 0.027626636 0.48662093 -0.37783003 -0.8008363 -0.4875494 1.2824765 -0.5050847
aqui 0.10580011 0.510566 0.01061988 0.13675088 0.4811952 -1.4312577 0.74010545 1.0772704 -0.5741241 -0.64991957 -1.0663891 -0.778238 0.74472857 0.8004905 0.9442287 -0.024721812 -0.56970584 0.2805362 0.9890377 -0.39642522 -0.32502726 0.6822142 -0.12666993 0.4840739 0.18990484 0.63548726 -1.5349426 -0.4298844 -0.5951141 -0.10549027 0.85960853 0.24132816 -0.76004887 -1.1667256 -0.48210377 0.98314756 -0.52145326 0.21851556 -0.18807171 0.2592121 -0.055882715 -0.2922979 -0.7300689 0.38625062 0.4938547 -0.09429964 0.5723867 -0.8156632 1.0918044 0.21289705 -0.06983086 -0.9416129 0.79370445 -0.20540637 0.19023909 0.06888971 0.94357646 0.5432134 -0.37597308 0.9955407 -0.40877694 0.0912557 -0.20244119 0.90421826 -0.32512575 0.49162567 -0.18425919 -0.48770633 -0.2650384 0.27726078 -0.5769788 -0.98342854 0.37539896 0.45537645 0.068121225 0.37212342 -0.9014256 0.34062004 -0.77046597 0.40041757 -0.14325476 0.2129224 -1.2498903 -0.39222932 0.38181144 0.07533513 0.3082551 0.094694145 0.32401475 -0.19481666 1.2667419 -0.4845399 0.7677724 0.49898767 0.34913072 -0.22891715 0.46343714 0.15053746 -0.2780555 -1.2434616
seus -0.30379778 0.14068836 -0.0042203716 -0.49912986 0.18587293 0.014480385 -0.32643834 0.6879123 1.5281253 -0.93357414 0.4759282 0.40849495 -1.3643413 0.17853694 0.620021 -0.91707367 0.24856566 -0.6666159 -0.29699543 0.16892663 -0.56284994 -0.8743946 1.1190084 -1.1045142 -0.6498418 -1.9086149 0.28874055 -0.49085537 0.6188089 1.9653677 -0.9576377 0.19025403 -0.32575074 -0.60291994 -0.5245392 -0.02644341 -0.46832457 -0.4002525 0.55623096 -0.76286066 -0.5520683 -0.20154081 -0.1285245 0.3651367 1.0032862 0.11714467 0.8668768 -0.23325266 0.8956503 0.5830352 0.20971231 -1.0597886 0.89861923 0.672886 -2.6605415 0.2645123 0.18441114 0.916192 0.68388146 -0.09063687 0.9985106 0.14534377 -0.54107106 -0.4704366 -0.10889171 0.58709574 0.7373756 1.9903235 -0.93997854 1.065485 1.3468969 0.58078766 0.0875275 -0.1571572 -0.1987041 0.749911 0.6208116 -0.77156395 0.4666671 -0.7237474 0.6103036 0.15735418 -0.5773803 0.04132055 0.5731202 -1.3085572 0.5825757 -1.2934415 0.15023507 1.7422988 1.4637648 -1.5432574 -1.915022 0.3942655 0.019712526 0.12006085 0.5748493 -0.8094132 -0.12942909 0.07812966
tão -0.87406087 -0.17376393 -0.2930255 -0.4997588 -0.43072614 -0.518348 -0.70177805 0.41289833 -0.66709465 -0.9723237 -0.3107298 -0.19977006 0.8573588 1.0889679 0.07459157 0.52411246 1.1761767 0.009845524 0.035326418 -0.13968512 0.875548 -0.3055768 -0.34774536 -0.38304183 -0.38513952 -0.7078043 -0.32932225 -0.4683733 1.5550525 0.55076724 -0.004338106 -0.87312186 -0.032222424 -0.44657886 0.09835641 1.62554 -0.2993956 0.28853 0.00566109 0.5722541 2.2693653 -0.29436162 0.44197816 0.47957206 0.5032612 0.81723726 -0.5039319 0.79994726 -0.9506907 -0.6740679 -0.30541468 -0.7913881 1.0329592 0.3817235 -0.54608214 0.35714245 -0.5888734 0.31311774 0.1162674 -0.9004193 -0.6898032 -0.9299049 0.4222209 -0.80622184 -0.16518994 0.09071368 0.2068822 0.7897796 0.15183385 1.899032 1.4531857 0.108233064 0.3615098 -0.03554394 0.524058 0.4149447 0.19575538 -0.15444443 0.8651653 0.7971996 -1.3312911 -0.20559536 -0.70738286 -0.30190852 0.2908405 -1.2147117 -0.75064045 0.29675394 0.18603738 0.5607223 0.27500147 0.030890103 -0.30981055 -0.4579363 -0.50424534 -0.20606728 -0.16477267 0.08931686 1.2191012 1.1807894
sr -1.464109 0.352195 0.45923874 0.23720732 -0.3087117 0.06469318 1.0066929 0.6990306 0.32463193 1.2773255 -0.1643806 -2.6054423 -0.33804157 -0.8362406 -0.65925384 0.6771871 -0.5148038 0.6971741 0.50746655 -1.007521 -1.7230161 -0.3226603 0.8247545 1.5712945 0.25675905 0.8556384 1.0405974 1.566691 0.50261885 0.8913784 -0.3232277 -1.3421606 -0.2145857 -0.5085197 0.025035879 -0.3010304 1.2439119 0.7192296 -0.5922433 -0.114424124 -0.7077604 -0.2226777 -0.5457361 -1.2006348 0.713609 0.040191755 0.834168 0.5262628 -0.6443469 -0.5462467 0.777149 -1.5148308 2.0411592 0.31491604 -2.6732488 0.8844076 -0.13522992 0.57841367 -0.575546 0.38279516 1.4546554 -0.27072734 1.3887805 0.20380652 -1.8650417 -0.4711583 -0.6148761 1.6839874 -1.365899 -1.1791888 -0.27741042 2.5437765 0.11688971 0.70163226 -0.12853129 2.668718 -1.9039308 -0.48062623 -0.9729225 -0.25194559 -0.8953678 -1.8587403 -0.71222115 0.7690572 -0.25864616 0.97618705 0.65610737 0.054072984 1.8301933 0.6266934 1.6838499 -0.26766905 -0.8932225 1.1399425 1.8595688 0.6832095 0.11476117 -1.0325389 -1.118008 1.0769565
